svm_type c_svc
kernel_type rbf
gamma 0.0078125
nr_class 2
total_sv 131
rho 96.0713
label 3 4
nr_sv 64 67
SV
5756.649875803559 1:-0.1915 2:-0.915947 3:0.961147 4:-0.782255 5:0.0788453 6:0.321556 7:0.0236708 8:0.300171 9:-0.758745 10:-0.841615 11:0.0916181 12:0.24705 13:0.0788453 14:0.321557 
32768 1:0.412356 2:-0.900963 3:1 4:-1 5:-0.0159341 6:-0.694583 7:0.280996 8:-0.476594 9:-0.343788 10:-0.762422 11:0.178287 12:-0.71042 13:-0.015934 14:-0.694583 
8392.670359693595 1:0.560792 2:-0.88783 3:0.376263 4:0.183862 5:0.0434557 6:0.166306 7:0.247294 8:0.277103 9:-0.0856454 10:-0.347826 11:0.164563 12:0.0996309 13:0.0434558 14:0.166306 
32768 1:0.687286 2:-0.695977 3:0.413669 4:-0.160371 5:-0.160302 6:-0.054465 7:-0.0182784 8:0.000741003 9:-0.0446321 10:-0.295031 11:-0.0361722 12:-0.147209 13:-0.160302 14:-0.0544649 
19201.169938451 1:0.47136 2:-0.727237 3:1 4:-1 5:0.16112 6:-0.490675 7:0.227786 8:-0.412739 9:-0.199035 10:-0.492236 11:0.384071 12:-0.539918 13:0.16112 14:-0.490675 
23865.72809336566 1:0.132376 2:-0.915353 3:0.395895 4:-0.452456 5:-0.671052 6:-0.613302 7:-0.6629 8:-0.407648 9:-0.638118 10:-0.667702 11:-0.637802 12:-0.59391 13:-0.671053 14:-0.613302 
5040.277879302914 1:-0.318845 2:-0.777219 3:1 4:-1 5:-0.406452 6:0.119099 7:-0.383292 8:0.0419794 9:-0.72497 10:-0.667702 11:-0.340974 12:0.0378676 13:-0.406452 14:0.119099 
32768 1:-0.0528364 2:-0.744955 3:0.891685 4:-0.394982 5:-0.510955 6:-0.325374 7:-0.37901 8:-0.117691 9:-0.457177 10:-0.284161 11:-0.349499 12:-0.318161 13:-0.510955 14:-0.325374 
32768 1:-0.680722 2:-0.590546 3:0.754047 4:-0.376971 5:-0.363378 6:0.426264 7:-0.387257 8:0.206547 9:-0.872135 10:-0.863354 11:-0.39637 12:0.317738 13:-0.363379 14:0.426264 
11460.48133655793 1:-0.324845 2:-0.296944 3:0.955673 4:-0.790237 5:-0.503389 6:-0.684392 7:-0.701836 8:-0.829376 9:-0.88661 10:-0.897516 11:-0.47264 12:-0.656748 13:-0.503389 14:-0.684392 
32768 1:-0.456373 2:-0.970737 3:0.296125 4:-0.779254 5:0.134887 6:-0.380156 7:0.394473 8:-0.268662 9:-0.623643 10:-0.78882 11:0.412994 12:-0.450025 13:0.134887 14:-0.380155 
2806.733478293963 1:-0.692232 2:-0.892772 3:0.808248 4:-0.291021 5:0.517751 6:0.221388 7:0.492407 8:0.215116 9:-0.838359 10:-0.833851 11:0.558758 12:0.165246 13:0.517751 14:0.221388 
32768 1:0.720218 2:-0.749157 3:0.998066 4:-0.938881 5:-0.50223 6:-0.241975 7:-0.363943 8:-0.0892748 9:-0.170084 10:-0.153727 11:-0.27208 12:-0.201862 13:-0.50223 14:-0.241975 
32768 1:-0.0136319 2:-0.602975 3:0.436686 4:-0.268566 5:-0.292594 6:-0.448597 7:-0.205265 8:-0.300751 9:-0.295537 10:-0.363354 11:-0.12659 12:-0.448331 13:-0.292594 14:-0.448597 
32768 1:0.392158 2:-0.38596 3:0.996616 4:-0.956656 5:-0.663079 6:-0.470514 7:-0.63118 8:-0.436451 9:-0.604343 10:-0.757764 11:-0.53676 12:-0.441246 13:-0.663079 14:-0.470514 
32768 1:-0.860311 2:-0.915968 3:0.799397 4:-0.00506099 5:-0.8188 6:-0.497483 7:-0.91063 8:-0.594446 9:-0.968637 10:-0.948758 11:-0.874609 12:-0.508343 13:-0.8188 14:-0.497483 
30605.18034298172 1:0.523668 2:-0.310316 3:0.944716 4:-0.582298 5:-0.656549 6:-0.390459 7:-0.666389 8:-0.393279 9:-0.505428 10:-0.534161 11:-0.611404 12:-0.36763 13:-0.656549 14:-0.390459 
32768 1:-0.31021 2:-0.841379 3:0.993009 4:-0.934066 5:-0.569436 6:-0.692632 7:-0.549582 8:-0.597732 9:-0.756333 10:-0.801242 11:-0.484289 12:-0.65684 13:-0.569437 14:-0.692632 
32768 1:-0.00338431 2:-0.858972 3:0.906963 4:-0.67128 5:-0.275964 6:-0.425173 7:-0.110503 8:-0.205193 9:-0.522316 10:-0.580745 11:-0.0224233 12:-0.384423 13:-0.275964 14:-0.425173 
32768 1:0.505312 2:-0.80911 3:0.838933 4:-0.525071 5:0.0361873 6:-0.438077 7:0.21835 8:-0.190309 9:0.150784 10:-0.268634 11:0.281504 12:-0.44584 13:0.0361873 14:-0.438078 
3563.56276624935 1:-0.815585 2:-0.848974 3:0.716467 4:-0.347306 5:-0.149756 6:0.422788 7:-0.243963 8:0.216921 9:-0.939686 10:-0.899068 11:-0.269305 12:0.355511 13:-0.149756 14:0.422789 
27265.87257614849 1:0.702975 2:-0.194451 3:0.724704 4:-0.103902 5:-0.153775 6:-0.033991 7:-0.217874 8:-0.0491962 9:-0.199035 10:-0.113354 11:-0.0526711 12:-0.143331 13:-0.153775 14:-0.0339909 
32768 1:-0.353087 2:-0.80534 3:0.991848 4:-0.84654 5:-0.440381 6:-0.183981 7:-0.397486 8:-0.0250975 9:-0.696019 10:-0.703416 11:-0.267655 12:-0.192581 13:-0.440381 14:-0.183981 
32768 1:-0.816594 2:-0.909093 3:0.918092 4:-0.693504 5:-0.474108 6:0.0327822 7:-0.473851 8:0.0321209 9:-0.908323 10:-0.892857 11:-0.364823 12:-0.0410096 13:-0.474108 14:0.032782 
32768 1:-0.384629 2:-0.844192 3:1 4:-1 5:-0.234011 6:-0.0205257 7:-0.144919 8:-0.0107929 9:-0.633293 10:-0.703416 11:-0.0273231 12:-0.106464 13:-0.234011 14:-0.0205258 
32768 1:0.376971 2:-0.632218 3:0.92015 4:-0.457141 5:-0.321959 6:-0.346437 7:-0.303755 8:-0.182383 9:-0.302774 10:-0.506211 11:-0.0589707 12:-0.370985 13:-0.321959 14:-0.346438 
32768 1:-0.36269 2:-0.78165 3:0.976532 4:-0.759361 5:0.3938 6:0.409128 7:0.593117 8:0.223235 9:-0.570567 10:-0.663043 11:0.632153 12:0.260076 13:0.3938 14:0.409128 
32768 1:0.406644 2:-0.861927 3:0.993544 4:-0.865766 5:-0.164552 6:-0.00662962 7:-0.111058 8:-0.0568639 9:-0.259349 10:-0.371118 11:-0.00914927 12:-0.0464734 13:-0.164552 14:-0.0066294 
32768 1:0.0708734 2:-0.873234 3:0.997737 4:-0.940067 5:-0.515778 6:-0.029547 7:-0.48535 8:0.0312832 9:-0.683957 10:-0.736025 11:-0.375172 12:-0.101932 13:-0.515778 14:-0.0295472 
15491.06973846352 1:-0.863364 2:-0.814791 3:0.834099 4:-0.24929 5:-0.488685 6:-0.139635 7:-0.548789 8:-0.0986179 9:-0.925211 10:-0.82764 11:-0.505962 12:-0.116461 13:-0.488685 14:-0.139635 
23604.33192245094 1:0.67881 2:-0.0538694 3:0.999184 4:-0.972991 5:-0.422342 6:-0.618965 7:-0.506284 8:-0.454042 9:-0.302774 10:-0.388199 11:-0.315551 12:-0.600387 13:-0.422343 14:-0.618965 
21939.04802759749 1:-0.674144 2:-0.891956 3:-0.166232 4:0.401069 5:-0.77013 6:0.187575 7:-0.790016 8:0.0225845 9:-0.628468 10:-0.270186 11:-0.680449 12:0.0951689 13:-0.77013 14:0.187576 
32768 1:-0.213072 2:-0.860463 3:0.219439 4:-0.553183 5:-0.652234 6:0.0192453 7:-0.71611 8:-0.0329585 9:-0.319662 10:-0.110248 11:-0.453866 12:0.00140339 13:-0.652234 14:0.0192453 
32768 1:-0.220727 2:-0.901332 3:0.839074 4:-0.855166 5:-0.394688 6:-0.338519 7:-0.460608 8:-0.272528 9:-0.585042 10:-0.559006 11:-0.191636 12:-0.432164 13:-0.394688 14:-0.338519 
32768 1:0.195043 2:-0.765446 3:0.985582 4:-0.812326 5:-0.282177 6:0.0797973 7:-0.190119 8:0.139727 9:-0.372738 10:-0.534161 11:-0.00552464 12:0.0233739 13:-0.282177 14:0.0797974 
32768 1:-0.843098 2:-0.961384 3:0.969145 4:-0.831258 5:-0.280425 6:0.244656 7:-0.273859 8:0.177358 9:-0.944511 10:-0.950311 11:-0.229008 12:0.200439 13:-0.280426 14:0.244656 
16696.94122256337 1:0.944214 2:-0.687527 3:0.988116 4:-0.850923 5:0.358547 6:-0.354488 7:0.752666 8:-0.144753 9:-0.0494572 10:-0.440994 11:0.649101 12:-0.417033 13:0.358546 14:-0.354488 
32768 1:-0.0377837 2:-0.665961 3:0.929575 4:-0.529989 5:0.0296635 6:-0.132191 7:0.0794972 8:-0.0866974 9:-0.457177 10:-0.437888 11:0.19861 12:-0.175852 13:0.0296633 14:-0.132191 
32768 1:-0.610045 2:-0.968197 3:1 4:-1 5:-0.900834 6:-0.594326 7:-0.919432 8:-0.510745 9:-0.749095 10:-0.413043 11:-0.879809 12:-0.579234 13:-0.900834 14:-0.594326 
10294.87366192867 1:-0.945472 2:-0.955776 3:0.974602 4:-0.735162 5:-0.687022 6:-0.0634468 7:-0.724515 8:-0.130835 9:-0.983112 10:-0.970497 11:-0.735495 12:-0.107785 13:-0.687023 14:-0.0634468 
18966.44785976927 1:-0.0105293 2:-0.797049 3:1 4:-1 5:-0.563731 6:-0.00893927 7:-0.621664 8:-0.0874062 9:-0.73462 10:-0.726708 11:-0.571382 12:-0.0269695 13:-0.563731 14:-0.0089392 
32768 1:0.0667775 2:-0.586782 3:0.912404 4:-0.696704 5:-0.902305 6:-0.788735 7:-0.870108 8:-0.590193 9:-0.698432 10:-0.774845 11:-0.809514 12:-0.750159 13:-0.902305 14:-0.788735 
32768 1:-0.835522 2:-0.748394 3:0.712807 4:0.0433355 5:-0.543776 6:-0.0372639 7:-0.611594 8:-0.123361 9:-0.934861 10:-0.895963 11:-0.568032 12:-0.0793864 13:-0.543776 14:-0.0372638 
32768 1:-0.169624 2:-0.834082 3:0.669324 4:-0.318835 5:-0.55357 6:-0.516862 7:-0.476706 8:-0.177229 9:-0.565742 10:-0.428571 11:-0.365898 12:-0.438276 13:-0.55357 14:-0.516862 
32768 1:-0.73917 2:-0.88426 3:0.706098 4:-0.0410667 5:-0.569787 6:-0.179607 7:-0.63459 8:-0.185347 9:-0.920386 10:-0.85559 11:-0.580707 12:-0.242589 13:-0.569787 14:-0.179607 
32768 1:0.510266 2:-0.762392 3:0.342182 4:-0.471427 5:-0.533675 6:-0.428184 7:-0.398993 8:-0.117948 9:-0.145959 10:0.270186 11:-0.261255 12:-0.352905 13:-0.533675 14:-0.428184 
32768 1:0.167889 2:-0.841981 3:0.334008 4:-0.73096 5:-0.372477 6:0.392585 7:-0.284247 8:0.476594 9:-0.367913 10:-0.226708 11:-0.217134 12:0.295072 13:-0.372478 14:0.392585 
11167.78450005124 1:0.154017 2:-0.538035 3:0.509726 4:-0.326692 5:-0.0813214 6:0.170571 7:-0.0471433 8:0.205258 9:-0.372738 10:-0.375776 11:-0.0145989 12:0.123966 13:-0.0813217 14:0.170571 
32768 1:0.321115 2:-0.115754 3:1 4:-1 5:-0.56626 6:-0.758614 7:-0.517624 8:-0.68865 9:-0.71532 10:-0.73913 11:-0.40497 12:-0.733062 13:-0.566261 14:-0.758614 
32768 1:-0.903966 2:-0.952779 3:0.417992 4:0.00303939 5:-0.248299 6:5.06926e-005 7:-0.157369 8:-0.0340539 9:-0.932449 10:-0.936335 11:-0.181911 12:-0.0718916 13:-0.248299 14:5.08818e-005 
32768 1:0.571622 2:-0.845822 3:0.847964 4:-0.476317 5:-0.626725 6:-0.553084 7:-0.576226 8:-0.345791 9:-0.297949 10:-0.560559 11:-0.304627 12:-0.559375 13:-0.626725 14:-0.553084 
3421.880973589476 1:0.90172 2:-0.201614 3:0.92795 4:-0.543423 5:-0.0291804 6:-0.0684987 7:0.186551 8:0.0554464 9:-0.186972 10:-0.352484 11:0.186436 12:-0.0977133 13:-0.0291806 14:-0.0684988 
32768 1:0.305951 2:-0.912913 3:0.583737 4:-0.217491 5:-0.536815 6:-0.71146 7:-0.548313 8:-0.716872 9:-0.0301568 10:0.169255 11:-0.380072 12:-0.696693 13:-0.536815 14:-0.711461 
28588.47895356329 1:0.647395 2:-0.80847 3:0.997539 4:-0.889911 5:-0.330457 6:-0.414787 7:-0.282741 8:-0.0966204 9:-0.0277443 10:-0.290373 11:-0.0920681 12:-0.433469 13:-0.330457 14:-0.414787 
24319.53334589486 1:-0.611276 2:-0.907936 3:1 4:-1 5:-0.993921 6:-0.699991 7:-0.994608 8:-0.602565 9:-0.881785 10:-0.872671 11:-1 12:-0.721127 13:-0.993921 14:-0.699991 
32768 1:0.72853 2:-0.607985 3:0.863097 4:-0.684302 5:-0.643638 6:-0.542653 7:-0.576702 8:-0.41944 9:-0.343788 10:-0.512422 11:-0.516261 12:-0.532908 13:-0.643639 14:-0.542653 
27012.70470365005 1:-0.295905 2:-0.802183 3:0.579077 4:-0.10805 5:-0.425245 6:-0.412857 7:-0.415884 8:-0.124585 9:-0.785283 10:-0.82764 11:-0.328825 12:-0.354923 13:-0.425245 14:-0.412857 
32768 1:0.484962 2:-0.746163 3:0.818228 4:-0.314957 5:-0.755097 6:-0.670745 7:-0.79755 8:-0.539676 9:-0.428227 10:-0.582298 11:-0.605705 12:-0.684289 13:-0.755097 14:-0.670744 
32768 1:-0.945667 2:-0.962312 3:0.723769 4:-0.299722 5:-0.471894 6:0.192571 7:-0.524603 8:0.018074 9:-0.978287 10:-0.951863 11:-0.522486 12:0.136873 13:-0.471894 14:0.192571 
32768 1:-0.81831 2:-0.856008 3:0.848002 4:-0.254678 5:-0.61476 6:-0.471091 7:-0.673367 8:-0.449596 9:-0.932449 10:-0.880435 11:-0.6697 12:-0.501936 13:-0.61476 14:-0.471091 
13349.21985974273 1:0.321503 2:0.583493 3:0.928048 4:-0.556806 5:-0.47919 6:-0.0524639 7:-0.537687 8:-0.143336 9:-0.515078 10:-0.0232919 11:-0.461441 12:-0.103031 13:-0.47919 14:-0.0524639 
32768 1:0.262409 2:-0.893586 3:1 4:-1 5:-0.795045 6:-0.860201 7:-0.821974 8:-0.766487 9:-0.464415 10:-0.608696 11:-0.690873 12:-0.827975 13:-0.795045 14:-0.860201 
32768 1:-0.535616 2:-0.802988 3:0.980542 4:-0.754901 5:-0.63916 6:-0.12544 7:-0.610166 8:-0.0941074 9:-0.855247 10:-0.841615 11:-0.613429 12:-0.139022 13:-0.63916 14:-0.12544 
32768 1:-0.640855 2:-0.90154 3:0.629456 4:-0.878802 5:-0.197404 6:-0.568333 7:-0.106459 8:-0.39721 9:-0.799759 10:-0.850932 11:0.00472459 12:-0.589239 13:-0.197404 14:-0.568333 
-29617.51766469383 1:-0.66401 2:-0.940627 3:0.807113 4:-0.487858 5:-0.316842 6:-0.530982 7:-0.339677 8:-0.601534 9:-0.855247 10:-0.838509 11:-0.181586 12:-0.52112 13:-0.316843 14:-0.530982 
-32768 1:-0.961806 2:-0.937368 3:0.95347 4:-0.858785 5:-0.655057 6:-0.760014 7:-0.645296 8:-0.801604 9:-0.983112 10:-0.959627 11:-0.614054 12:-0.757253 13:-0.655057 14:-0.760014 
-5828.119658105738 1:-0.720274 2:-0.924092 3:0.807144 4:-0.988713 5:-0.497264 6:-0.657501 7:-0.493597 8:-0.543671 9:-0.659831 10:-0.548137 11:-0.303252 12:-0.668799 13:-0.497265 14:-0.657502 
-21707.1461303344 1:-0.944366 2:-0.90224 3:0.9718 4:-0.677659 5:-0.872988 6:-1 7:-0.933706 8:-0.969844 9:-0.975875 10:-0.916149 11:-0.953129 12:-0.999007 13:-0.872988 14:-1 
-32768 1:0.846495 2:-0.799277 3:0.932039 4:-0.84235 5:-0.0093857 6:-0.0369254 7:0.192578 8:0.179226 9:0.0832328 10:-0.130435 11:0.233682 12:-0.0643332 13:-0.00938608 14:-0.0369255 
-27957.23460987932 1:-0.358766 2:-0.8396 3:0.156249 4:0.0357578 5:-0.781507 6:-0.475949 7:-0.781214 8:-0.420729 9:-0.290712 10:-0.0419255 11:-0.635652 12:-0.438261 13:-0.781507 14:-0.475949 
-32768 1:0.247028 2:-0.655221 3:0.962392 4:-0.599791 5:-0.417361 6:-0.271678 7:-0.29408 8:0.0321209 9:-0.377563 10:-0.434783 11:-0.0697949 12:-0.246779 13:-0.417361 14:-0.271678 
-3853.254649691639 1:0.73066 2:-0.774889 3:-0.757887 4:-0.433499 5:-0.225425 6:0.220438 7:-0.0867135 8:0.297207 9:-0.353438 10:-0.409938 11:-0.144264 12:0.206014 13:-0.225425 14:0.220438 
-9106.582125207786 1:-0.121667 2:-0.748304 3:0.639104 4:-0.955353 5:-0.0935906 6:0.0836818 7:-0.119305 8:-0.0467476 9:0.0156815 10:0.664596 11:-0.0106992 12:0.0494492 13:-0.0935907 14:0.0836821 
-1671.580612912935 1:0.110488 2:-0.915695 3:0.396592 4:-0.847927 5:0.228059 6:0.290143 7:0.592403 8:0.578724 9:-0.160434 10:-0.395963 11:0.46689 12:0.143652 13:0.228059 14:0.290143 
-19847.77052470886 1:0.723252 2:-0.69341 3:0.883012 4:-0.568136 5:0.0499599 6:-0.449581 7:0.148884 8:-0.3311 9:0.353438 10:0.231366 11:0.249506 12:-0.46927 13:0.0499597 14:-0.449581 
-32768 1:0.0440565 2:-0.25875 3:0.967288 4:-0.876122 5:-0.641042 6:-0.569243 7:-0.534911 8:-0.400432 9:-0.814234 10:-0.849379 11:-0.439067 12:-0.494025 13:-0.641042 14:-0.569243 
-32768 1:0.273062 2:-0.941744 3:0.961749 4:-0.757419 5:-0.279893 6:-0.576874 7:-0.19345 8:-0.484842 9:-0.242461 10:-0.687888 11:0.0379472 12:-0.610637 13:-0.279893 14:-0.576874 
-32768 1:0.354374 2:-0.660989 3:1 4:-1 5:-0.508134 6:-0.833797 7:-0.594068 8:-0.790071 9:-0.517491 10:-0.757764 11:-0.434468 12:-0.859105 13:-0.508135 14:-0.833797 
-32768 1:0.815441 2:-0.360375 3:0.942148 4:-0.648618 5:-0.236926 6:-0.760247 7:-0.439277 8:-0.7998 9:-0.305187 10:-0.360248 11:-0.281129 12:-0.802054 13:-0.236926 14:-0.760247 
-217.364174742512 1:0.421723 2:-0.757463 3:-1 4:-0.880792 5:0.087585 6:0.768312 7:0.236033 8:0.616547 9:0.490953 10:0.413043 11:0.122991 12:0.644955 13:0.0875851 14:0.768312 
-16897.83580942161 1:0.209344 2:-0.0479232 3:0.960992 4:-0.499989 5:-0.374378 6:-0.0373068 7:-0.411601 8:-0.0958472 9:-0.191797 10:-0.121118 11:-0.333375 12:-0.118344 13:-0.374378 14:-0.0373066 
-278.4210870276917 1:0.665379 2:-0.67471 3:-0.55696 4:0.143339 5:-0.217769 6:0.0703999 7:-0.0691884 8:0.131609 9:0.758745 10:0.804348 11:-0.0858935 12:-0.00544231 13:-0.21777 14:0.0703998 
-32768 1:-0.795817 2:-0.968767 3:1 4:-1 5:-0.529489 6:-0.147605 7:-0.553467 8:-0.139083 9:-0.946924 10:-0.96118 11:-0.488663 12:-0.146275 13:-0.52949 14:-0.147605 
-32768 1:-0.139999 2:-0.75984 3:0.63135 4:-0.620546 5:-0.206504 6:-0.393768 7:-0.0436541 8:-0.108992 9:-0.483715 10:-0.697205 11:0.0982927 12:-0.370884 13:-0.206504 14:-0.393768 
-4446.956014793882 1:0.130938 2:0.120381 3:0.701494 4:-0.192698 5:-0.588931 6:-0.2994 7:-0.449189 8:-0.00119205 9:-0.503016 10:-0.350932 11:-0.411544 12:-0.2542 13:-0.588931 14:-0.2994 
-2820.796030166254 1:1 2:-0.867967 3:-0.0111695 4:-1 5:-0.423784 6:-0.464954 7:-0.260061 8:-0.237218 9:0.498191 10:0.732919 11:-0.223183 12:-0.498784 13:-0.423785 14:-0.464954 
-32768 1:0.329198 2:-0.768992 3:0.99436 4:-0.944378 5:-0.343513 6:-0.618529 7:-0.290195 8:-0.506427 9:-0.462002 10:-0.65528 11:-0.153789 12:-0.583606 13:-0.343513 14:-0.618529 
-5470.133784929704 1:-0.0952347 2:-0.844063 3:1 4:-1 5:0.356563 6:0.21422 7:0.654732 8:0.264603 9:-0.351025 10:-0.673913 11:0.577282 12:0.0568091 13:0.356563 14:0.21422 
-32768 1:0.573757 2:-0.741108 3:1 4:-1 5:-0.614334 6:-0.436118 7:-0.597875 8:-0.367183 9:-0.433052 10:-0.627329 11:-0.493138 12:-0.434837 13:-0.614334 14:-0.436118 
-32768 1:0.14321 2:-0.690566 3:0.792864 4:-0.684551 5:-0.76805 6:-0.335362 7:-0.792633 8:-0.311125 9:-0.594692 10:-0.579193 11:-0.715596 12:-0.394029 13:-0.768051 14:-0.335362 
-32768 1:-0.670103 2:-0.774687 3:0.891987 4:-0.210106 5:-0.276616 6:0.100491 7:-0.260695 8:0.0785786 9:-0.874548 10:-0.892857 11:-0.3306 12:0.0138271 13:-0.276616 14:0.100491 
-32336.35235004981 1:0.271652 2:-0.845047 3:0.195482 4:-0.469702 5:0.0247908 6:-0.263937 7:0.361564 8:-0.0766455 9:-0.0904704 10:-0.487578 11:0.369222 12:-0.35884 13:0.0247907 14:-0.263937 
-32768 1:-0.784005 2:-0.928752 3:0.855591 4:-0.270851 5:-0.369511 6:-0.168349 7:-0.393521 8:-0.277812 9:-0.770808 10:-0.440994 11:-0.337075 12:-0.178041 13:-0.369512 14:-0.168349 
-24681.45741033202 1:-0.293913 2:-0.462028 3:0.934452 4:-0.355124 5:-0.492023 6:-0.513398 7:-0.442925 8:-0.407777 9:-0.515078 10:-0.175466 11:-0.447392 12:-0.482157 13:-0.492023 14:-0.513398 
-32768 1:0.722858 2:-0.413224 3:0.917093 4:-0.836649 5:-0.114344 6:-0.189301 7:0.115023 8:-0.0879216 9:-0.0422195 10:-0.454969 11:0.167012 12:-0.238983 13:-0.114344 14:-0.189302 
-32768 1:0.202543 2:-0.38411 3:0.415776 4:-0.246189 5:-0.356313 6:-0.400244 7:-0.326593 8:-0.314862 9:-0.657419 10:-0.690994 11:-0.291953 12:-0.372054 13:-0.356313 14:-0.400244 
-32768 1:0.552814 2:-0.275058 3:0.783869 4:-0.694374 5:-0.649169 6:-0.594344 7:-0.621268 8:-0.442637 9:-0.406514 10:-0.371118 11:-0.545484 12:-0.604238 13:-0.649169 14:-0.594344 
-32768 1:0.391983 2:0.0542957 3:0.708413 4:-0.412275 5:-0.614329 6:-0.148436 7:-0.637366 8:-0.154032 9:-0.536791 10:-0.596273 11:-0.501037 12:-0.197062 13:-0.61433 14:-0.148436 
-32768 1:0.344636 2:-0.839414 3:0.410352 4:-0.435734 5:-0.480606 6:-0.572211 7:-0.598668 8:-0.348755 9:-0.609168 10:-0.694099 11:-0.441567 12:-0.514419 13:-0.480606 14:-0.572211 
-32768 1:0.210346 2:-0.795858 3:0.107121 4:0.174738 5:-0.616363 6:-0.162194 7:-0.5928 8:-0.0665292 9:-0.256936 10:0.00776398 11:-0.497413 12:-0.180409 13:-0.616364 14:-0.162194 
-32768 1:-0.441147 2:-0.912016 3:1 4:-1 5:-0.50519 6:-0.0806045 7:-0.543555 8:-0.0654338 9:-0.797346 10:-0.785714 11:-0.457091 12:-0.145715 13:-0.50519 14:-0.0806048 
-32768 1:-0.596106 2:-0.914012 3:0.746447 4:-0.269914 5:-0.310398 6:0.24674 7:-0.368939 8:0.0554464 9:-0.874548 10:-0.880435 11:-0.323076 12:0.167178 13:-0.310398 14:0.246741 
-32768 1:-0.127278 2:-0.766781 3:0.673253 4:-0.14029 5:-0.0913144 6:0.00419058 7:-0.138496 8:-0.0570573 9:-0.691194 10:-0.709627 11:-0.119741 12:-0.0595405 13:-0.0913148 14:0.00419061 
-32768 1:0.198545 2:-0.734579 3:0.781302 4:-0.34481 5:-0.737332 6:-0.171981 7:-0.75679 8:-0.06131 9:-0.490953 10:-0.35559 11:-0.582231 12:-0.167856 13:-0.737332 14:-0.171981 
-32768 1:0.425029 2:-0.624435 3:0.849293 4:-0.339687 5:-0.0872782 6:0.219896 7:-0.109472 8:0.137537 9:-0.107358 10:-0.125776 11:0.0671698 12:0.0987227 13:-0.0872782 14:0.219896 
-32768 1:-0.812653 2:-0.92261 3:0.860241 4:-0.273911 5:-0.695849 6:0.0519739 7:-0.704135 8:0.0720062 9:-0.958987 10:-0.945652 11:-0.740245 12:-0.0232537 13:-0.695849 14:0.0519737 
-32768 1:-0.0392544 2:-0.818175 3:0.98024 4:-0.765185 5:-0.179121 6:-0.0206884 7:-0.117244 8:-0.0351493 9:-0.553679 10:-0.631988 11:-0.0314228 12:-0.124745 13:-0.179121 14:-0.0206881 
-32768 1:-0.787831 2:-0.957551 3:0.629227 4:0.247083 5:-0.897611 6:-0.300424 7:-0.880179 8:-0.231547 9:-0.869723 10:-0.737578 11:-0.806265 12:-0.30768 13:-0.897611 14:-0.300424 
-32768 1:0.404696 2:-0.858023 3:0.985147 4:-0.835106 5:-0.11867 6:-0.398389 7:0.0586416 8:-0.215245 9:-0.295537 10:-0.540373 11:0.13099 12:-0.402736 13:-0.11867 14:-0.398389 
-32768 1:-0.109389 2:-0.694926 3:0.76103 4:-0.7276 5:-0.0238929 6:0.508722 7:-0.035407 8:0.260479 9:-0.48854 10:-0.714286 11:0.0308227 12:0.332501 13:-0.0238929 14:0.508723 
-32768 1:-0.736628 2:-0.936219 3:1 4:-1 5:-0.250101 6:0.61837 7:-0.325959 8:0.325236 9:-0.862485 10:-0.826087 11:-0.287104 12:0.47519 13:-0.250101 14:0.618371 
-32768 1:0.207029 2:-0.756036 3:0.917395 4:-0.445771 5:-0.25453 6:-0.470666 7:-0.226993 8:-0.282129 9:-0.264174 10:-0.0496894 11:-0.0425217 12:-0.500534 13:-0.25453 14:-0.470666 
-32768 1:-0.594189 2:-0.69757 3:0.640241 4:-0.611287 5:-0.688859 6:-0.19119 7:-0.724832 8:-0.155901 9:-0.855247 10:-0.815217 11:-0.771092 12:-0.270334 13:-0.688859 14:-0.19119 
-32768 1:0.511422 2:-0.891549 3:1 4:-1 5:-0.552399 6:-0.230085 7:-0.386226 8:0.110603 9:-0.112183 10:-0.263975 11:-0.314801 12:-0.185536 13:-0.552399 14:-0.230086 
-1806.034805150486 1:0.676673 2:-0.625333 3:0.515782 4:-0.485184 5:-0.446515 6:-0.476952 7:-0.306213 8:-0.306357 9:0.0542823 10:0.274845 11:-0.116966 12:-0.482957 13:-0.446516 14:-0.476953 
-27606.06317653352 1:-0.0346742 2:-0.8769 3:1 4:-1 5:0.43249 6:-0.169532 7:0.977717 8:0.0542221 9:-0.437877 10:-0.695652 11:0.695098 12:-0.23221 13:0.43249 14:-0.169532 
-32768 1:-0.141465 2:-0.75309 3:0.897755 4:-0.505764 5:-0.914098 6:-0.567271 7:-0.909758 8:-0.446632 9:-0.575392 10:-0.403727 11:-0.776867 12:-0.572642 13:-0.914098 14:-0.567272 
-15899.90675842103 1:-0.415935 2:-0.799472 3:0.455143 4:-0.457445 5:-0.578125 6:-0.388275 7:-0.446017 8:-0.193337 9:-0.599517 10:-0.456522 11:-0.266955 12:-0.345083 13:-0.578125 14:-0.388275 
-32768 1:0.794817 2:-0.763467 3:1 4:-1 5:-0.891644 6:-0.776677 7:-0.887951 8:-0.85064 9:-0.435464 10:-0.462733 11:-0.871185 12:-0.778613 13:-0.891644 14:-0.776677 
-32768 1:-0.928312 2:-0.977608 3:0.307817 4:-0.206231 5:0.0732053 6:0.0509508 7:0.267674 8:0.0700731 9:-0.901086 10:-0.838509 11:0.218359 12:-0.0353973 13:0.0732052 14:0.0509511 
-32768 1:0.0370751 2:-0.749087 3:0.97932 4:-0.723138 5:-0.114547 6:-0.55256 7:0.0277943 8:-0.209833 9:-0.642943 10:-0.756211 11:0.178312 12:-0.489251 13:-0.114547 14:-0.552561 
-6963.429634839475 1:0.443466 2:-0.770834 3:0.543205 4:-0.77535 5:-0.179877 6:-0.618875 7:-0.0797351 8:-0.450047 9:-0.341375 10:-0.583851 11:0.176712 12:-0.675356 13:-0.179877 14:-0.618875 
-31372.18558026541 1:-0.463002 2:-0.952628 3:0.52963 4:-0.753702 5:-0.832653 6:-0.497596 7:-0.76353 8:-0.184832 9:-0.763571 10:-0.757764 11:-0.524811 12:-0.411489 13:-0.832653 14:-0.497596 
-32768 1:-0.846885 2:-0.950274 3:0.95308 4:-0.398973 5:-0.523615 6:-0.200281 7:-0.504302 8:-0.148168 9:-0.927624 10:-0.908385 11:-0.413744 12:-0.20828 13:-0.523616 14:-0.200281 
-32768 1:-0.150358 2:-0.848118 3:0.969489 4:-0.791898 5:-0.799709 6:-0.362095 7:-0.772412 8:-0.110925 9:-0.642943 10:-0.753106 11:-0.615979 12:-0.339833 13:-0.799709 14:-0.362095 
-32768 1:0.497735 2:-0.84785 3:0.840325 4:-0.619257 5:-0.463437 6:-0.735959 7:-0.406447 8:-0.463643 9:-0.31725 10:-0.329193 11:-0.126616 12:-0.724024 13:-0.463437 14:-0.735959 
-16285.00107421931 1:-0.213909 2:-0.921967 3:0.99212 4:-0.882395 5:-0.823141 6:-0.374786 7:-0.837834 8:-0.239602 9:-0.727382 10:-0.810559 11:-0.550134 12:-0.336914 13:-0.823142 14:-0.374786 
-32768 1:-0.965724 2:-0.97072 3:0.768794 4:-0.395464 5:-0.290773 6:0.0762822 7:-0.333016 8:-0.0381133 9:-0.963812 10:-0.878882 11:-0.305327 12:0.0458761 13:-0.290773 14:0.076282 
-32768 1:-0.237662 2:-0.817271 3:0.943615 4:-0.798418 5:-0.532882 6:-0.0213966 7:-0.508584 8:-0.0653049 9:-0.739445 10:-0.708075 11:-0.462615 12:-0.0613775 13:-0.532882 14:-0.0213967 
-5407.65106712269 1:-0.912111 2:-0.932914 3:-0.379224 4:1 5:-0.302027 6:0.862353 7:-0.325959 8:0.578337 9:-0.922799 10:-0.892857 11:-0.340499 12:0.706231 13:-0.302027 14:0.862353 
-7963.846682563492 1:0.0976176 2:-0.876246 3:0.195313 4:-0.848348 5:-0.630369 6:0.299927 7:-0.555053 8:0.307645 9:-0.138721 10:0.225155 11:-0.52916 12:0.226138 13:-0.630369 14:0.299927 
