svm_type c_svc
kernel_type rbf
gamma 0.5
nr_class 2
total_sv 139
rho -0.775267
label 1 2
nr_sv 73 66
SV
0.5 1:-0.381196 2:-0.974049 3:0.905827 4:-0.130114 5:0.177936 6:-0.354404 7:0.10377 8:0.0291177 9:-0.095373 10:-0.192369 11:0.3153 12:-0.331643 13:0.177936 14:-0.354404 
0.5 1:-0.509598 2:-0.72467 3:0.990175 4:-0.789274 5:0.0854961 6:-0.0685414 7:0.0502162 8:0.462908 9:-0.542965 10:-0.764706 11:0.277053 12:0.0106813 13:0.0854961 14:-0.0685417 
0.3734384196543308 1:1 2:-0.56204 3:0.987672 4:-0.807169 5:-0.742251 6:-0.587223 7:-0.852765 8:-0.35151 9:0.896128 10:0.702703 11:-0.689938 12:-0.47423 13:-0.742251 14:-0.587223 
0.5 1:-0.705713 2:-0.723908 3:0.985997 4:-0.747806 5:-0.0384053 6:-0.466249 7:-0.0213153 8:0.328001 9:-0.654391 10:-0.669316 11:0.369279 12:-0.256133 13:-0.0384051 14:-0.466249 
0.5 1:-0.612635 2:-0.731145 3:1 4:-1 5:-1 6:-0.974671 7:-1 8:-1 9:-0.197356 10:-0.316375 11:-1 12:-0.874902 13:-1 14:-0.974672 
0.5 1:-0.0681425 2:-0.756002 3:0.978325 4:-0.712946 5:0.0926344 6:-0.208824 7:0.209664 8:0.515973 9:0.229462 10:-0.174881 11:0.235533 12:-0.140171 13:0.0926341 14:-0.208824 
0.5 1:-0.323651 2:-0.490764 3:0.973659 4:-0.836587 5:0.13728 6:-0.430733 7:-0.15429 8:-0.257962 9:-0.163362 10:-0.623211 11:0.0575062 12:-0.434949 13:0.13728 14:-0.430733 
0.5 1:-0.0931375 2:-0.399415 3:-0.00727817 4:-0.0878471 5:-0.305325 6:-0.288191 7:-0.374953 8:-0.0424816 9:0.169027 10:0.027027 11:-0.270388 12:-0.119988 13:-0.305324 14:-0.288191 
0.2041695388329388 1:-0.449173 2:-0.860273 3:-0.786666 4:-1 5:-0.875673 6:-0.561015 7:-0.87097 8:-0.294835 9:-0.240793 10:0.281399 11:-0.932572 12:-0.410513 13:-0.875673 14:-0.561015 
0.133784682367249 1:-0.302217 2:-1 3:-0.561697 4:0.291502 5:-0.591908 6:-0.814064 7:-0.541227 8:-0.472467 9:-0.118036 10:0.0492846 11:-0.506957 12:-0.715251 13:-0.591908 14:-0.814065 
0.5 1:-0.840554 2:-0.29332 3:0.826178 4:0.289813 5:-0.219469 6:0.126149 7:-0.364333 8:0.250744 9:-0.567517 10:-0.623211 11:-0.240427 12:0.0981111 13:-0.219469 14:0.126149 
0.5 1:-0.647892 2:-0.487606 3:0.994732 4:-0.923398 5:-0.0340264 6:-0.0876966 7:-0.200713 8:0.0415061 9:-0.420208 10:-0.670906 11:0.0249928 12:-0.103067 13:-0.0340263 14:-0.0876966 
0.5 1:-0.857696 2:-0.857527 3:0.677599 4:0.0963738 5:0.566902 6:-0.0263065 7:0.660093 8:0.695264 9:-0.805477 10:-0.764706 11:0.839745 12:0.136967 13:0.566902 14:-0.0263067 
0.5 1:-0.212764 2:-0.637294 3:0.977702 4:-0.838058 5:0.686372 6:-0.226341 7:0.57248 8:0.22226 9:-0.0972616 10:-0.537361 11:0.781354 12:-0.186564 13:0.686372 14:-0.226341 
0.5 1:-0.721692 2:-0.759649 3:1 4:-1 5:0.0508617 6:-0.266942 7:-0.0829098 8:0.0528215 9:-0.329556 10:-0.748808 11:0.016767 12:-0.158281 13:0.0508617 14:-0.266942 
0.5 1:-0.724672 2:-0.0888468 3:0.655482 4:-0.766249 5:-0.273371 6:0.0196597 7:-0.472578 8:0.0964249 9:-0.261568 10:-0.109698 11:-0.290893 12:0.117864 13:-0.273371 14:0.0196596 
0.5 1:-0.907666 2:-0.419772 3:0.997126 4:-0.884466 5:-0.355394 6:-0.635365 7:-0.458545 8:-0.467102 9:-0.69594 10:-0.6407 11:-0.303172 12:-0.548007 13:-0.355394 14:-0.635364 
0.5 1:-0.862255 2:-0.72793 3:0.943562 4:-0.306905 5:0.760707 6:-0.293891 7:0.708792 8:-0.01312 9:-0.593957 10:-0.810811 11:0.84611 12:-0.294048 13:0.760708 14:-0.293891 
0.5 1:-0.53401 2:-0.662526 3:0.597279 4:0.512469 5:-0.59324 6:-0.520571 7:-0.652355 8:-0.154368 9:-0.220019 10:-0.300477 11:-0.593509 12:-0.278394 13:-0.59324 14:-0.520571 
0.5 1:-0.867861 2:-0.525871 3:0.994103 4:-0.911083 5:0.279076 6:-0.97604 7:-0.00887507 8:-0.923231 9:-0.758263 10:-0.995231 11:0.284829 12:-1 13:0.279076 14:-0.97604 
0.5 1:-0.781183 2:-0.462268 3:0.998103 4:-0.923747 5:0.663595 6:-0.657373 7:-0.0395964 8:-0.579866 9:-0.597734 10:-0.659777 11:0.280416 12:-0.577465 13:0.663595 14:-0.657373 
0.5 1:-0.259327 2:-0.53821 3:0.989464 4:-0.892892 5:0.055766 6:-0.500415 7:0.107639 8:-0.148417 9:-0.0897073 10:-0.36566 11:0.240007 12:-0.471461 13:0.0557658 14:-0.500415 
0.5 1:-0.0778102 2:-0.809114 3:0.999649 4:-0.980015 5:-0.106938 6:-0.851361 7:-0.195403 8:-0.740233 9:-0.157696 10:-0.408585 11:-0.0668126 12:-0.845047 13:-0.106938 14:-0.851361 
0.2587224119562188 1:-0.851357 2:-0.839465 3:0.390112 4:0.323723 5:0.796817 6:0.1058 7:0.585451 8:0.448276 9:-0.20491 10:-0.523052 11:0.781294 12:0.152535 13:0.796817 14:0.1058 
0.5 1:-0.957213 2:0.541169 3:1 4:-1 5:-0.0268615 6:-0.0608334 7:-0.065008 8:0.244696 9:-0.962229 10:-0.945946 11:0.0358607 12:0.221996 13:-0.0268617 14:-0.0608335 
0.03011060840936411 1:-0.857808 2:-0.155722 3:-1 4:0.66166 5:0.339947 6:0.732371 7:0.123948 8:0.677511 9:-0.110482 10:-0.0158983 11:0.196956 12:0.769309 13:0.339947 14:0.732371 
0.1582829539994056 1:-0.853095 2:-0.798784 3:-0.471573 4:0.304746 5:0.395667 6:1 7:0.205416 8:0.812515 9:0.355996 10:1 11:0.273571 12:1 13:0.395667 14:1 
0.1242385606231511 1:-0.391688 2:-0.38621 3:-0.827924 4:-0.908105 5:-0.27288 6:0.0506118 7:-0.313055 8:0.306736 9:0.576959 10:0.740859 11:-0.233762 12:0.121305 13:-0.27288 14:0.0506117 
0.1258442078475316 1:-0.0990923 2:1 3:0.483317 4:0.756218 5:0.286895 6:0.122091 7:0.108094 8:0.363703 9:0.835694 10:0.434022 11:0.2165 12:0.0890573 13:0.286895 14:0.122091 
0.2098309926299621 1:0.358467 2:-0.598286 3:1 4:-1 5:0.674336 6:-0.181289 7:0.290374 8:0.11691 9:1 10:0.311606 11:0.502394 12:-0.167292 13:0.674336 14:-0.18129 
0.5 1:-0.895149 2:-0.726363 3:0.990105 4:-0.770982 5:0.04104 6:0.183806 7:-0.163165 8:0.306638 9:-0.537299 10:-0.737679 11:-0.0101623 12:0.221833 13:0.0410401 14:0.183805 
0.5 1:-0.562023 2:-0.464444 3:0.995083 4:-0.925941 5:0.0495761 6:-0.412171 7:-0.0540848 8:-0.0947666 9:-0.461756 10:-0.945946 11:0.193414 12:-0.36925 13:0.0495762 14:-0.412171 
0.5 1:-0.81428 2:-0.149294 3:0.464895 4:-0.792458 5:0.333368 6:-0.241339 7:0.265493 8:0.0897917 9:-0.335222 10:-0.526232 11:0.401672 12:-0.192044 13:0.333368 14:-0.24134 
0.5 1:-0.534183 2:-0.113701 3:1 4:-1 5:-0.722756 6:-0.980702 7:-0.787909 8:-0.923426 9:-0.622285 10:-0.977742 11:-0.590507 12:-0.898425 13:-0.722756 14:-0.980703 
0.5 1:-0.409008 2:-0.530292 3:1 4:-1 5:0.290056 6:-0.00566247 7:-0.0140332 8:0.134663 9:-0.0254958 10:-0.26868 11:0.25847 12:-0.0117924 13:0.290055 14:-0.00566297 
0.5 1:-0.278329 2:-0.637667 3:0.488478 4:-0.417234 5:0.667055 6:-0.251458 7:0.78715 8:0.130859 9:0.225685 10:-0.063593 11:0.819391 12:-0.237412 13:0.667055 14:-0.251458 
0.5 1:-0.346783 2:-0.673701 3:0.883749 4:-0.738791 5:0.029951 6:-0.290851 7:0.0035652 8:0.0113642 9:-0.0764873 10:-0.252782 11:0.138594 12:-0.184586 13:0.0299511 14:-0.290851 
0.5 1:-0.72499 2:-0.386272 3:1 4:-1 5:-0.504489 6:-0.363368 7:-0.59865 8:-0.329464 9:-0.675165 10:-0.413355 11:-0.462255 12:-0.290937 13:-0.504489 14:-0.363368 
0.5 1:-0.222507 2:-0.926824 3:0.987855 4:-0.815064 5:0.59551 6:-0.535379 7:0.479709 8:-0.322733 9:-0.140699 10:-0.440382 11:0.671805 12:-0.575537 13:0.59551 14:-0.53538 
0.5 1:-0.662007 2:0.669322 3:0.680547 4:-0.577699 5:0.433396 6:-0.238866 7:0.408101 8:-0.0591621 9:-0.199245 10:-0.426073 11:0.596782 12:-0.383701 13:0.433395 14:-0.238866 
0.5 1:-0.755875 2:-0.0040623 3:0.878222 4:-0.576348 5:0.367321 6:0.10783 7:0.270955 8:0.162171 9:-0.371105 10:-0.661367 11:0.341779 12:0.188587 13:0.367321 14:0.10783 
0.1379864991225073 1:-0.445005 2:0.261844 3:0.827352 4:-0.539114 5:0.293502 6:0.125479 7:0.198513 8:0.148905 9:0.0236072 10:-0.36566 11:0.279215 12:0.230881 13:0.293502 14:0.125478 
0.5 1:-0.122723 2:-0.491312 3:0.811881 4:-0.765394 5:0.284218 6:-0.312192 7:0.150497 8:-0.161391 9:0.03305 10:-0.27663 11:0.290113 12:-0.315613 13:0.284218 14:-0.312192 
0.5 1:-0.812266 2:-0.449189 3:0.935412 4:-0.399293 5:0.431235 6:-0.179796 7:0.41599 8:0.00297517 9:-0.473088 10:-0.651828 11:0.483421 12:-0.169739 13:0.431235 14:-0.179796 
0.5 1:-0.482742 2:0.195374 3:0.56511 4:-0.799662 5:0.131598 6:-0.409957 7:-0.166882 8:-0.42467 9:0.0481586 10:0.0985692 11:0.0837149 12:-0.453033 13:0.131598 14:-0.409957 
0.5 1:-0.839508 2:-0.762342 3:0.975665 4:-0.769222 5:-0.153398 6:-0.354953 7:-0.246454 8:0.103351 9:-0.796034 10:-0.955485 11:-0.127456 12:-0.202776 13:-0.153398 14:-0.354953 
0.5 1:-0.624706 2:-0.909261 3:0.543201 4:0.799504 5:-0.202814 6:-0.432265 7:-0.293332 8:-0.196215 9:-0.437205 10:-0.570747 11:-0.153455 12:-0.365315 13:-0.202814 14:-0.432265 
0.04239768528328518 1:-0.631671 2:-0.889461 3:-0.871036 4:-1 5:-0.333976 6:-0.242 7:-0.379959 8:-0.288104 9:-0.102927 10:0.117647 11:-0.17513 12:-0.256705 13:-0.333976 14:-0.242 
0.1340179293374353 1:-0.604497 2:0.0914789 3:0.0201083 4:0.400956 5:-0.445904 6:-0.0322318 7:-0.549723 8:0.228113 9:-0.835694 10:-0.804452 11:-0.522839 12:0.213277 13:-0.445904 14:-0.0322321 
0.242323151009598 1:-0.690464 2:-0.870017 3:0.352334 4:-1 5:-0.431222 6:0.123853 7:-0.595995 8:0.0947666 9:-0.459868 10:-0.330684 11:-0.387982 12:0.22724 13:-0.431222 14:0.123853 
0.5 1:-0.895257 2:-0.87742 3:1 4:-1 5:-0.132182 6:-0.263588 7:-0.141773 8:0.124226 9:-0.626062 10:-0.756757 11:0.0944326 12:-0.219084 13:-0.132182 14:-0.263588 
0.5 1:-0.798953 2:-0.738099 3:1 4:-1 5:0.250534 6:-0.0679843 7:0.32193 8:0.526606 9:-0.516525 10:-0.689984 11:0.49591 12:0.0396592 13:0.250534 14:-0.0679841 
0.5 1:-0.81907 2:0.0452773 3:0.727685 4:-0.009366 5:-0.447164 6:-0.398101 7:-0.571797 8:-0.259425 9:-0.644948 10:-0.281399 11:-0.49678 12:-0.334755 13:-0.447163 14:-0.398102 
0.5 1:-0.799037 2:-0.918243 3:-0.259351 4:-1 5:-0.335832 6:-0.0122263 7:-0.4945 8:0.0274594 9:-0.701605 10:-0.655008 11:-0.360843 12:0.00818438 13:-0.335832 14:-0.0122263 
0.4394131627567526 1:-0.90572 2:-0.651203 3:-0.637191 4:0.0545034 5:0.115014 6:-0.110302 7:-0.0826064 8:0.111935 9:-0.405099 10:-0.114467 11:0.0446872 12:0.0404112 13:0.115015 14:-0.110302 
0.3169068601222442 1:-0.632057 2:-0.747782 3:0.736457 4:-0.518415 5:0.917129 6:0.427195 7:0.590761 8:0.294932 9:-0.293673 10:-0.669316 11:0.841577 12:0.399411 13:0.917129 14:0.427195 
0.5 1:0.312013 2:-0.672413 3:0.80708 4:-0.365281 5:0.706578 6:-0.672443 7:0.731776 8:-0.558211 9:0.301228 10:-0.527822 11:0.771927 12:-0.737627 13:0.706578 14:-0.672443 
0.5 1:0.118839 2:0.261483 3:1 4:-1 5:-0.161752 6:-0.107575 7:-0.253888 8:0.196215 9:-0.16525 10:-0.406995 11:-0.13271 12:-0.0490586 13:-0.161752 14:-0.107576 
0.5 1:-0.189128 2:-0.800395 3:1 4:-1 5:0.309895 6:-0.61775 7:0.44254 8:-0.401356 9:-0.233239 10:-0.620032 11:0.45472 12:-0.648921 13:0.309895 14:-0.61775 
0.5 1:-0.354339 2:-0.687294 3:1 4:-1 5:0.294167 6:-0.621832 7:0.0973223 8:-0.579769 9:-0.0708215 10:-0.468998 11:0.292094 12:-0.644528 13:0.294166 14:-0.621832 
0.5 1:-0.697629 2:-0.603462 3:0.982883 4:-0.838015 5:-0.917843 6:-0.636639 7:-0.916483 8:-0.750963 9:-0.799811 10:-0.535771 11:-0.961632 12:-0.639181 13:-0.917842 14:-0.636639 
0.1560858987257176 1:-0.740675 2:-0.789512 3:-0.949963 4:-1 5:0.917609 6:0.203406 7:0.692103 8:0.212018 9:0.252125 10:0.578696 11:0.836143 12:0.201298 13:0.917609 14:0.203406 
0.5 1:-0.761343 2:-0.965041 3:0.687902 4:-0.555695 5:-0.286497 6:-0.455735 7:-0.387545 8:-0.0521387 9:-0.680831 10:-0.666137 11:-0.179663 12:-0.375364 13:-0.286497 14:-0.455735 
0.07474529038051689 1:-0.713688 2:-0.508287 3:0.357707 4:-0.66556 5:0.547929 6:0.946415 7:0.431085 8:1 9:-0.167139 10:-0.122417 11:0.404825 12:0.997879 13:0.547929 14:0.946415 
0.4077418075976784 1:-0.458801 2:-0.764823 3:0.177567 4:-1 5:0.900316 6:-0.12292 7:1 8:0.16539 9:0.240793 10:-0.0524642 11:1 12:-0.160231 13:0.900316 14:-0.12292 
0.5 1:-0.881439 2:-0.253019 3:0.140745 4:0.0119666 5:-0.767705 6:-0.691659 7:-0.89623 8:-0.455202 9:-0.707271 10:-0.475358 11:-0.896276 12:-0.517034 13:-0.767704 14:-0.691659 
0.5 1:-0.861146 2:-0.580865 3:0.907881 4:-0.573661 5:-0.495008 6:-0.419002 7:-0.573162 8:0.0267766 9:-0.826251 10:-0.81717 11:-0.449406 12:-0.149699 13:-0.495008 14:-0.419002 
0.5 1:-0.432482 2:-0.715336 3:0.993264 4:-0.81742 5:0.343553 6:-0.101356 7:-0.00561329 8:0.033995 9:0.167139 10:-0.238474 11:0.155496 12:-0.104042 13:0.343553 14:-0.101356 
0.5 1:-0.880755 2:-0.498623 3:0.99499 4:-0.898353 5:-0.358169 6:-0.134432 7:-0.448987 8:0.115056 9:-0.569405 10:-0.378378 11:-0.360032 12:0.0455929 13:-0.358168 14:-0.134431 
0.5 1:0.318041 2:-0.429951 3:0.996673 4:-0.915579 5:0.280188 6:-0.335216 7:0.34499 8:-0.0229722 9:0.25779 10:-0.073132 11:0.463607 12:-0.342686 13:0.280189 14:-0.335216 
0.5 1:-0.39181 2:-0.493257 3:0.994381 4:-0.920946 5:0.0325389 6:-0.341628 7:0.10248 8:0.0945715 9:-0.389991 10:-0.521463 11:0.348564 12:-0.275298 13:0.0325389 14:-0.341628 
0.5 1:-0.353066 2:-0.991023 3:1 4:-1 5:0.459597 6:-0.0451399 7:0.432375 8:0.350437 9:0.0519358 10:-0.248013 11:0.736472 12:-0.100456 13:0.459597 14:-0.04514 
0.2745790298025164 1:-0.272504 2:-0.88967 3:0.614521 4:0.0453239 5:0.0661769 6:0.0783381 7:-0.0839718 8:0.43062 9:0.0613787 10:-0.354531 11:0.18816 12:0.0885042 13:0.0661771 14:0.0783381 
-0.5 1:-0.292424 2:-0.840565 3:-0.786666 4:-1 5:0.178333 6:-0.179798 7:0.158993 8:0.460664 9:0.646837 10:0.950715 11:0.389724 12:-0.100079 13:0.178333 14:-0.179798 
-0.5 1:-0.577647 2:-0.766281 3:0.738998 4:-0.306808 5:0.653422 6:0.315525 7:0.515664 8:0.348095 9:-0.0273843 10:-0.402226 11:0.72002 12:0.240531 13:0.653422 14:0.315525 
-0.5 1:-0.0176405 2:0.417772 3:1 4:-1 5:0.605256 6:-0.451501 7:0.600622 8:-0.171438 9:0.457979 10:-0.09062 11:0.74833 12:-0.483225 13:0.605256 14:-0.451501 
-0.5 1:-0.710522 2:-0.708973 3:0.650753 4:0.258292 5:0.580416 6:-0.349748 7:0.303421 8:-0.110667 9:-0.429651 10:-0.516693 11:0.489635 12:-0.310675 13:0.580416 14:-0.349749 
-0.5 1:-0.81772 2:-0.794073 3:0.998351 4:-0.906159 5:-0.532786 6:-0.513331 7:-0.569445 8:-0.105692 9:-0.242682 10:-0.109698 11:-0.358831 12:-0.382404 13:-0.532786 14:-0.513331 
-0.5 1:-0.482243 2:-0.935392 3:1 4:-1 5:0.17808 6:-0.127408 7:-0.00530987 8:0.0410184 9:-0.0651558 10:-0.559618 11:0.185007 12:-0.094918 13:0.17808 14:-0.127408 
-0.5 1:-0.357459 2:-0.872407 3:0.179283 4:-0.928499 5:0.214369 6:-0.362344 7:0.333232 8:0.150563 9:-0.169027 10:-0.370429 11:0.45382 12:-0.316772 13:0.214368 14:-0.362344 
-0.5 1:-0.659683 2:-0.836346 3:1 4:-1 5:0.5028 6:-0.345978 7:0.293105 8:-0.120909 9:-0.365439 10:-0.551669 11:0.504076 12:-0.403558 13:0.5028 14:-0.345979 
-0.5 1:-0.415693 2:-0.632897 3:1 4:-1 5:0.417864 6:-0.542825 7:0.0917849 8:-0.5467 9:-0.412653 10:-0.779014 11:0.376844 12:-0.565259 13:0.417864 14:-0.542825 
-0.07218071137414554 1:-0.267726 2:-0.642507 3:0.952449 4:-0.47896 5:0.0402761 6:-0.515232 7:-0.0224532 8:0.022387 9:-0.221907 10:-0.489666 11:0.0752789 12:-0.396721 13:0.040276 14:-0.515232 
-0.5 1:-0.864955 2:-0.831487 3:0.621822 4:0.606303 5:-0.107338 6:-0.0113024 7:-0.182735 8:0.350534 9:-0.665722 10:-0.626391 11:-0.130939 12:0.015675 13:-0.107338 14:-0.0113023 
-0.5 1:-0.727821 2:-0.951094 3:0.775932 4:-0.367804 5:0.255142 6:-0.0918677 7:0.238565 8:0.266741 9:-0.484419 10:-0.767886 11:0.377685 12:-0.0568733 13:0.255142 14:-0.0918681 
-0.5 1:-0.560918 2:-0.431009 3:0.572115 4:-0.767465 5:0.729655 6:-0.401625 7:0.605097 8:-0.137102 9:-0.248347 10:-0.683625 11:0.802069 12:-0.524037 13:0.729655 14:-0.401625 
-0.5 1:-0.777942 2:-0.508655 3:0.984588 4:-0.772652 5:-0.0533431 6:-0.367139 7:-0.134112 8:0.138077 9:-0.892351 10:-0.995231 11:-0.0307871 12:-0.236574 13:-0.0533433 14:-0.367139 
-0.486407216104534 1:-0.534818 2:-0.325549 3:0.735467 4:-0.483945 5:0.026364 6:-0.360477 7:-0.0935295 8:-0.0457006 9:-0.312559 10:-0.381558 11:-4.49154e-005 12:-0.29165 13:0.026364 14:-0.360477 
-0.5 1:-0.395417 2:-0.731564 3:1 4:-1 5:0.502209 6:-0.283219 7:0.32997 8:-0.0671609 9:0.0500472 10:-0.144674 11:0.478707 12:-0.285592 13:0.502209 14:-0.283219 
-0.5 1:-0.403195 2:-0.0740465 3:0.994732 4:-0.923398 5:-0.0104531 6:-0.401088 7:-0.113707 8:-0.0260937 9:-0.291785 10:-0.507154 11:0.0525526 12:-0.325631 13:-0.0104531 14:-0.401088 
-0.5 1:-0.312311 2:-0.0349004 3:0.983927 4:-0.746442 5:0.409445 6:-0.267304 7:0.250171 8:0.110179 9:0.0254958 10:-0.290938 11:0.366697 12:-0.13665 13:0.409445 14:-0.267305 
-0.5 1:-0.894318 2:0.652039 3:0.978744 4:-0.657728 5:-0.779341 6:-0.697866 7:-0.837594 8:-0.501341 9:-0.879131 10:-0.874404 11:-0.780423 12:-0.4852 13:-0.779341 14:-0.697866 
-0.5 1:-0.56672 2:-0.506872 3:0.806709 4:-0.159198 5:0.274843 6:-0.34384 7:0.145111 8:-0.225284 9:-0.220019 10:-0.27186 11:0.338537 12:-0.349819 13:0.274843 14:-0.343841 
-0.5 1:-0.855066 2:-0.938155 3:0.928834 4:-0.743453 5:0.464885 6:-0.526617 7:0.471289 8:-0.185388 9:-0.605288 10:-0.91256 11:0.564389 12:-0.538043 13:0.464885 14:-0.526617 
-0.5 1:-0.427697 2:-0.728207 3:0.724975 4:0.117562 5:0.131988 6:-0.36481 7:0.0806342 8:-0.055943 9:-0.131256 10:-0.333863 11:0.20323 12:-0.310481 13:0.131988 14:-0.36481 
-0.5 1:-0.873032 2:-0.818355 3:0.845775 4:0.00146969 5:0.145297 6:-0.330145 7:-0.0217705 8:-0.173292 9:-0.624174 10:-0.535771 11:0.11851 12:-0.231839 13:0.145297 14:-0.330145 
-0.5 1:-0.948328 2:-0.809062 3:0.982991 4:-0.722585 5:-0.174238 6:-0.428223 7:-0.328757 8:-0.0680388 9:-0.690274 10:-0.588235 11:-0.204131 12:-0.347354 13:-0.174238 14:-0.428223 
-0.5 1:-0.0613728 2:-0.607512 3:0.992717 4:-0.854684 5:-0.148212 6:-0.473978 7:-0.281044 8:-0.216212 9:-0.0273843 10:-0.197138 11:-0.0979149 12:-0.357176 13:-0.148212 14:-0.473978 
-0.5 1:-0.384395 2:-0.867328 3:0.980332 4:-0.856606 5:0.382227 6:-0.356575 7:0.280513 8:0.0340926 9:0.372993 10:0.327504 11:0.449406 12:-0.342599 13:0.382227 14:-0.356575 
-0.1522067457815528 1:-0.896822 2:-0.616721 3:0.999649 4:-0.980015 5:0.0320062 6:-0.395091 7:-0.185618 8:-0.346047 9:-0.794145 10:-0.896661 11:0.0136449 12:-0.364528 13:0.0320063 14:-0.395091 
-0.5 1:-0.577562 2:-0.211935 3:0.678513 4:-0.551014 5:0.21013 6:-0.724469 7:0.068118 8:-0.387699 9:-0.119924 10:-0.419714 11:0.417644 12:-0.702659 13:0.21013 14:-0.724469 
-0.5 1:-0.910856 2:-0.538864 3:0.958278 4:-0.412998 5:0.561496 6:-0.127634 7:0.41637 8:0.138858 9:-0.480642 10:-0.751987 11:0.624702 12:-0.144478 13:0.561496 14:-0.127634 
-0.5 1:-0.524763 2:-0.515032 3:0.999649 4:-0.980015 5:-0.37646 6:-0.105604 7:-0.492983 8:0.31493 9:-0.603399 10:-0.631161 11:-0.360363 12:0.042313 13:-0.37646 14:-0.105604 
-0.5 1:-0.761556 2:0.571468 3:0.993528 4:-0.897519 5:-0.420129 6:-0.394446 7:-0.593036 8:-0.210262 9:-0.777148 10:-0.667727 11:-0.408817 12:-0.287762 13:-0.420129 14:-0.394446 
-0.5 1:-0.437999 2:0.150724 3:1 4:-1 5:0.249508 6:-0.29035 7:0.134719 8:0.0212164 9:-0.405099 10:-0.688394 11:0.310077 12:-0.151402 13:0.249508 14:-0.29035 
-0.5 1:-0.892448 2:-0.335182 3:0.4055 4:-0.520165 5:-0.270369 6:-0.442333 7:-0.392248 8:-0.186363 9:-0.76204 10:-0.658188 11:-0.293715 12:-0.343803 13:-0.270368 14:-0.442333 
-0.1774990476547118 1:-1 2:0.0123956 3:1 4:-1 5:-0.187242 6:-0.372603 7:-0.418721 8:-0.265571 9:-0.899906 10:-0.806041 11:-0.316621 12:-0.266291 13:-0.187242 14:-0.372603 
-0.5 1:-0.114186 2:-0.42552 3:0.989538 4:-0.887078 5:0.047363 6:-0.586102 7:-0.0894334 8:-0.222065 9:-0.114259 10:-0.556439 11:0.0959637 12:-0.634407 13:0.0473631 14:-0.586102 
-0.5 1:-0.603091 2:-0.652086 3:0.991247 4:-0.751509 5:-0.774199 6:-0.8063 7:-0.823257 8:-0.516949 9:-0.871577 10:-0.753577 11:-0.7761 12:-0.600881 13:-0.774198 14:-0.806301 
-0.4978727427799662 1:-0.0761992 2:-0.739031 3:0.932917 4:-0.592808 5:-0.41234 6:-0.358939 7:-0.550633 8:-0.192996 9:-0.448536 10:-0.419714 11:-0.486723 12:-0.2502 13:-0.41234 14:-0.358939 
-0.5 1:-0.84075 2:-0.0315305 3:0.969185 4:-0.649074 5:0.00571438 6:-0.0884381 7:-0.359175 8:-0.207433 9:-0.90746 10:-0.718601 11:-0.27339 12:-0.0269494 13:0.00571464 14:-0.0884379 
-0.5 1:-0.813221 2:-0.727988 3:0.999649 4:-0.980015 5:-0.579576 6:-0.537717 7:-0.531897 8:-0.31493 9:-1 10:-0.984102 11:-0.603927 12:-0.378315 13:-0.579576 14:-0.537717 
-0.5 1:-0.140412 2:-0.691207 3:0.995541 4:-0.885962 5:0.516794 6:-0.674756 7:0.415459 8:-0.326342 9:-0.068933 10:-0.351351 11:0.633618 12:-0.553483 13:0.516794 14:-0.674757 
-0.5 1:-0.442768 2:-0.44228 3:0.994529 4:-0.906185 5:-0.123225 6:-0.206532 7:-0.224076 8:0.296688 9:-0.637394 10:-0.478537 11:-0.0757591 12:-0.0224757 13:-0.123225 14:-0.206532 
-0.5 1:-0.765359 2:-0.657167 3:0.351889 4:-0.904041 5:-0.373359 6:-0.516135 7:-0.435637 8:-0.0173145 9:-0.531634 10:-0.354531 11:-0.324397 12:-0.367258 13:-0.373359 14:-0.516135 
-0.5 1:-0.217822 2:-0.472804 3:0.712567 4:-0.148085 5:-0.713179 6:-1 7:-0.90556 8:-0.971809 9:-0.446648 10:-0.585056 11:-0.686306 12:-0.845315 13:-0.713178 14:-1 
-0.5 1:-0.642357 2:-0.73516 3:1 4:-1 5:0.400939 6:-0.137799 7:0.299628 8:0.0210213 9:-0.412653 10:-0.63434 11:0.480839 12:-0.137564 13:0.400939 14:-0.137799 
-0.5 1:-0.477097 2:0.194327 3:0.592524 4:0.0289921 5:-0.437092 6:-0.948006 7:-0.676098 8:-0.686973 9:-0.31067 10:0.0143084 11:-0.511731 12:-0.840159 13:-0.437092 14:-0.948006 
-0.5 1:-0.482855 2:-0.851529 3:1 4:-1 5:0.269042 6:-0.434245 7:0.137222 8:0.0082427 9:-0.344665 10:-0.581876 11:0.373782 12:-0.418638 13:0.269042 14:-0.434245 
-0.5 1:-0.638703 2:-0.455586 3:0.229145 4:-0.12312 5:-0.0192484 6:-0.341825 7:-0.088599 8:0.155343 9:-0.386213 10:-0.305246 11:0.117249 12:-0.222307 13:-0.0192483 14:-0.341825 
-0.5 1:-0.413125 2:-0.381559 3:0.998386 4:-0.934127 5:-0.0291052 6:-0.264744 7:-0.172722 8:0.0950593 9:-0.220019 10:-0.248013 11:-0.00950165 12:-0.225767 13:-0.0291051 14:-0.264744 
-0.2294105351098059 1:-0.64023 2:-0.693472 3:1 4:-1 5:0.345008 6:-0.577438 7:0.317151 8:-0.265473 9:-0.592068 10:-0.899841 11:0.430613 12:-0.562884 13:0.345008 14:-0.577439 
-0.5 1:-0.898547 2:-0.844797 3:1 4:-1 5:0.452603 6:-0.10521 7:0.305393 8:0.125006 9:-0.74882 10:-0.806041 11:0.475045 12:-0.100561 13:0.452603 14:-0.10521 
-0.5 1:-0.229282 2:-0.746374 3:0.967633 4:-0.806839 5:0.485032 6:-0.386175 7:0.376925 8:-0.0605277 9:-0.068933 10:-0.63593 11:0.686036 12:-0.408079 13:0.485032 14:-0.386175 
-0.5 1:-0.48078 2:-0.378779 3:0.933441 4:-0.440181 5:-0.43226 6:-0.289015 7:-0.519684 8:-0.169682 9:-0.573182 10:-0.440382 11:-0.371951 12:-0.217813 13:-0.43226 14:-0.289015 
-0.5 1:-0.572555 2:-0.270037 3:0.498367 4:-0.410268 5:0.103606 6:-0.0172484 7:-0.0678905 8:0.0900844 9:-0.352219 10:-0.54531 11:0.0711059 12:-0.0596583 13:0.103606 14:-0.0172487 
-0.5 1:-0.746884 2:-0.627905 3:0.999052 4:-0.946041 5:0.326149 6:0.603085 7:0.119396 8:0.748037 9:-0.527856 10:-0.850556 11:0.324757 12:0.653757 13:0.326149 14:0.603085 
-0.5 1:-0.900317 2:-0.693322 3:1 4:-1 5:-0.556373 6:-0.541966 7:-0.640977 8:-0.171243 9:-0.845137 10:-0.880763 11:-0.555232 12:-0.381501 13:-0.556373 14:-0.541966 
-0.5 1:-0.0357082 2:-0.59815 3:1 4:-1 5:-0.313368 6:-0.415771 7:-0.364636 8:-0.111154 9:-0.197356 10:-0.505564 11:-0.23115 12:-0.338955 13:-0.313368 14:-0.415771 
-0.5 1:-0.802888 2:0.00841319 3:0.999297 4:-0.971758 5:-0.0177667 6:-0.765753 7:-0.279147 8:-0.885285 9:-0.92068 10:-1 11:-0.0757289 12:-0.721207 13:-0.0177666 14:-0.765753 
-0.5 1:-0.178041 2:-0.276896 3:1 4:-1 5:-0.857621 6:-0.822744 7:-0.911704 8:-0.565722 9:-0.480642 10:-0.470588 11:-0.88844 12:-0.614846 13:-0.857621 14:-0.822745 
-0.1947148313257817 1:-0.741659 2:-0.38609 3:0.78369 4:-0.234705 5:-0.372637 6:-0.454923 7:-0.528104 8:-0.205775 9:-0.729934 10:-0.63752 11:-0.489575 12:-0.347226 13:-0.372637 14:-0.454923 
-0.5 1:-0.666696 2:0.356909 3:0.934648 4:-0.585911 5:-0.779736 6:-0.396084 7:-0.84571 8:-0.188021 9:-0.529745 10:0.368839 11:-0.791501 12:-0.198201 13:-0.779735 14:-0.396084 
-0.5 1:-0.611686 2:-0.632318 3:0.998563 4:-0.918245 5:-0.696108 6:-0.948663 7:-0.808465 8:-0.797005 9:-0.607177 10:-0.823529 11:-0.752203 12:-0.816757 13:-0.696108 14:-0.948663 
-0.5 1:-0.0999156 2:-0.581487 3:0.992762 4:-0.851697 5:-0.147493 6:-0.471472 7:-0.307897 8:-0.231625 9:-0.0632672 10:-0.295707 11:-0.106651 12:-0.341747 13:-0.147493 14:-0.471472 
-0.5 1:-0.459599 2:-0.465741 3:1 4:-1 5:0.491603 6:-0.42688 7:0.336115 8:0.0435546 9:-0.440982 10:-0.686804 11:0.521338 12:-0.405514 13:0.491603 14:-0.42688 
-0.03432786032790583 1:-0.692126 2:0.0154348 3:0.745843 4:-0.0696227 5:-0.277918 6:-0.542668 7:-0.366684 8:-0.152319 9:-0.588291 10:-0.608903 11:-0.086777 12:-0.489479 13:-0.277918 14:-0.542668 
-0.5 1:-0.580999 2:-0.445426 3:1 4:-1 5:0.33841 6:-0.107679 7:0.218311 8:0.0936936 9:-0.295562 10:-0.54372 11:0.390054 12:-0.122467 13:0.33841 14:-0.107679 
-0.5 1:-0.0558552 2:-0.494427 3:0.989587 4:-0.858721 5:0.716935 6:-0.240577 7:0.557536 8:0.126762 9:0.365439 10:-0.165342 11:0.70657 12:-0.252861 13:0.716935 14:-0.240577 
