svm_type c_svc
kernel_type rbf
gamma 0.0078125
nr_class 2
total_sv 26
rho 29.3211
label 1 2
nr_sv 14 12
SV
32768 1:-0.0120935 2:-0.33388 3:-0.0404737 4:-0.93299 
32768 1:0.0124748 2:-0.0559571 3:0.276587 4:-0.589388 
32768 1:-0.048265 2:-0.296327 3:-0.749285 4:-0.643261 
7704.643101209017 1:-0.0100234 2:-0.154608 3:0.144232 4:-0.590916 
2014.677242145731 1:-0.497794 2:0.284256 3:-0.77472 4:1 
9584.707157652845 1:-0.0488097 2:-0.0443335 3:-0.293947 4:-0.613219 
32768 1:-0.022934 2:-0.0237687 3:-0.223968 4:-0.8338 
4314.586428473153 1:-0.00392221 2:-0.703897 3:0.0581032 4:-0.795509 
32768 1:-0.0358991 2:-0.530586 3:-0.579652 4:-0.640817 
32768 1:-0.0288718 2:-0.266672 3:-0.131178 4:-0.615663 
32768 1:-0.0156344 2:-0.126593 3:-0.0112034 4:-0.797648 
32768 1:0.00768099 2:0.391849 3:-0.0401373 4:-0.186517 
32768 1:0.00103503 2:-0.0957455 3:-0.10507 4:-0.60721 
32768 1:-0.0205916 2:-0.317488 3:-0.314201 4:-0.720658 
-32768 1:-0.00653702 2:-0.344609 3:-0.174377 4:-0.698559 
-32768 1:-0.20499 2:0.176663 3:-0.641422 4:0.323794 
-32768 1:0.0135098 2:-0.0724983 3:-0.11449 4:-0.783492 
-32768 1:0.000980552 2:-0.259966 3:-0.206137 4:-0.712918 
-32768 1:0.0141091 2:-0.192907 3:-0.16536 4:-0.650593 
-32768 1:-0.00561094 2:-0.0492512 3:-0.178616 4:-0.713631 
-32768 1:0.0118756 2:-0.38708 3:-0.152104 4:-0.935944 
-32768 1:0.000435801 2:0.0151255 3:0.0334758 4:-0.753552 
-7562.180637508157 1:0.100833 2:0.335072 3:0.706221 4:-0.886552 
-16056.43329197256 1:0.000926077 2:-0.488265 3:-0.568348 4:-0.604766 
-32768 1:0.0109495 2:-0.0665375 3:-0.113414 4:-0.814858 
-32768 1:0.00811679 2:-0.432829 3:-0.189786 4:-0.679719 
