svm_type c_svc
kernel_type rbf
gamma 0.125
nr_class 2
total_sv 136
rho 14.5628
label 3 4
probA -0.731354
probB -0.00523544
nr_sv 66 70
SV
13.49154636714199 1:-0.185653 2:0.25347 3:-0.289957 4:-0.00280293 5:-0.971049 6:-0.967391 7:-0.216109 8:0.138373 9:-0.185653 10:0.25347 
275.2054413397771 1:0.0788453 2:0.321556 3:0.0236708 4:0.300171 5:-0.758745 6:-0.841615 7:0.0916181 8:0.24705 9:0.0788453 10:0.321557 
512 1:-0.498066 2:-0.441744 3:-0.440466 4:-0.170527 5:-0.862485 6:-0.909938 7:-0.374147 8:-0.407839 9:-0.498067 10:-0.441744 
91.59974164778501 1:-0.0159341 2:-0.694583 3:0.280996 4:-0.476594 5:-0.343788 6:-0.762422 7:0.178287 8:-0.71042 9:-0.015934 10:-0.694583 
512 1:0.0434557 2:0.166306 3:0.247294 4:0.277103 5:-0.0856454 6:-0.347826 7:0.164563 8:0.0996309 9:0.0434558 10:0.166306 
512 1:-0.160302 2:-0.054465 3:-0.0182784 4:0.000741003 5:-0.0446321 6:-0.295031 7:-0.0361722 8:-0.147209 9:-0.160302 10:-0.0544649 
488.9579456369966 1:0.16112 2:-0.490675 3:0.227786 4:-0.412739 5:-0.199035 6:-0.492236 7:0.384071 8:-0.539918 9:0.16112 10:-0.490675 
128.4558959321846 1:-0.406452 2:0.119099 3:-0.383292 4:0.0419794 5:-0.72497 6:-0.667702 7:-0.340974 8:0.0378676 9:-0.406452 10:0.119099 
512 1:-0.510955 2:-0.325374 3:-0.37901 4:-0.117691 5:-0.457177 6:-0.284161 7:-0.349499 8:-0.318161 9:-0.510955 10:-0.325374 
512 1:-0.363378 2:0.426264 3:-0.387257 4:0.206547 5:-0.872135 6:-0.863354 7:-0.39637 8:0.317738 9:-0.363379 10:0.426264 
512 1:-0.503389 2:-0.684392 3:-0.701836 4:-0.829376 5:-0.88661 6:-0.897516 7:-0.47264 8:-0.656748 9:-0.503389 10:-0.684392 
512 1:0.134887 2:-0.380156 3:0.394473 4:-0.268662 5:-0.623643 6:-0.78882 7:0.412994 8:-0.450025 9:0.134887 10:-0.380155 
512 1:-0.50223 2:-0.241975 3:-0.363943 4:-0.0892748 5:-0.170084 6:-0.153727 7:-0.27208 8:-0.201862 9:-0.50223 10:-0.241975 
512 1:-0.292594 2:-0.448597 3:-0.205265 4:-0.300751 5:-0.295537 6:-0.363354 7:-0.12659 8:-0.448331 9:-0.292594 10:-0.448597 
512 1:-0.663079 2:-0.470514 3:-0.63118 4:-0.436451 5:-0.604343 6:-0.757764 7:-0.53676 8:-0.441246 9:-0.663079 10:-0.470514 
512 1:-0.656549 2:-0.390459 3:-0.666389 4:-0.393279 5:-0.505428 6:-0.534161 7:-0.611404 8:-0.36763 9:-0.656549 10:-0.390459 
512 1:-0.569436 2:-0.692632 3:-0.549582 4:-0.597732 5:-0.756333 6:-0.801242 7:-0.484289 8:-0.65684 9:-0.569437 10:-0.692632 
512 1:-0.275964 2:-0.425173 3:-0.110503 4:-0.205193 5:-0.522316 6:-0.580745 7:-0.0224233 8:-0.384423 9:-0.275964 10:-0.425173 
512 1:-0.23908 2:-0.16594 3:-0.106855 4:-0.086053 5:-0.406514 6:-0.563665 7:-0.0850437 8:-0.210856 9:-0.23908 10:-0.16594 
405.8785458747694 1:0.0361873 2:-0.438077 3:0.21835 4:-0.190309 5:0.150784 6:-0.268634 7:0.281504 8:-0.44584 9:0.0361873 10:-0.438078 
512 1:-0.149756 2:0.422788 3:-0.243963 4:0.216921 5:-0.939686 6:-0.899068 7:-0.269305 8:0.355511 9:-0.149756 10:0.422789 
431.3620056970923 1:-0.153775 2:-0.033991 3:-0.217874 4:-0.0491962 5:-0.199035 6:-0.113354 7:-0.0526711 8:-0.143331 9:-0.153775 10:-0.0339909 
512 1:-0.440381 2:-0.183981 3:-0.397486 4:-0.0250975 5:-0.696019 6:-0.703416 7:-0.267655 8:-0.192581 9:-0.440381 10:-0.183981 
512 1:-0.474108 2:0.0327822 3:-0.473851 4:0.0321209 5:-0.908323 6:-0.892857 7:-0.364823 8:-0.0410096 9:-0.474108 10:0.032782 
512 1:-0.234011 2:-0.0205257 3:-0.144919 4:-0.0107929 5:-0.633293 6:-0.703416 7:-0.0273231 8:-0.106464 9:-0.234011 10:-0.0205258 
512 1:-0.321959 2:-0.346437 3:-0.303755 4:-0.182383 5:-0.302774 6:-0.506211 7:-0.0589707 8:-0.370985 9:-0.321959 10:-0.346438 
512 1:0.3938 2:0.409128 3:0.593117 4:0.223235 5:-0.570567 6:-0.663043 7:0.632153 8:0.260076 9:0.3938 10:0.409128 
512 1:-0.164552 2:-0.00662962 3:-0.111058 4:-0.0568639 5:-0.259349 6:-0.371118 7:-0.00914927 8:-0.0464734 9:-0.164552 10:-0.0066294 
512 1:-0.515778 2:-0.029547 3:-0.48535 4:0.0312832 5:-0.683957 6:-0.736025 7:-0.375172 8:-0.101932 9:-0.515778 10:-0.0295472 
512 1:-0.422342 2:-0.618965 3:-0.506284 4:-0.454042 5:-0.302774 6:-0.388199 7:-0.315551 8:-0.600387 9:-0.422343 10:-0.618965 
512 1:-0.77013 2:0.187575 3:-0.790016 4:0.0225845 5:-0.628468 6:-0.270186 7:-0.680449 8:0.0951689 9:-0.77013 10:0.187576 
512 1:-0.652234 2:0.0192453 3:-0.71611 4:-0.0329585 5:-0.319662 6:-0.110248 7:-0.453866 8:0.00140339 9:-0.652234 10:0.0192453 
512 1:-0.394688 2:-0.338519 3:-0.460608 4:-0.272528 5:-0.585042 6:-0.559006 7:-0.191636 8:-0.432164 9:-0.394688 10:-0.338519 
512 1:-0.282177 2:0.0797973 3:-0.190119 4:0.139727 5:-0.372738 6:-0.534161 7:-0.00552464 8:0.0233739 9:-0.282177 10:0.0797974 
512 1:-0.236956 2:-0.124862 3:-0.142936 4:0.00885982 5:-0.553679 6:-0.478261 7:0.0361223 8:-0.159961 9:-0.236956 10:-0.124862 
512 1:-0.280425 2:0.244656 3:-0.273859 4:0.177358 5:-0.944511 6:-0.950311 7:-0.229008 8:0.200439 9:-0.280426 10:0.244656 
512 1:-0.140683 2:-0.38602 3:0.0435748 4:-0.220851 5:-0.466828 6:-0.631988 7:0.110742 8:-0.418568 9:-0.140683 10:-0.38602 
512 1:-0.568544 2:-0.14056 3:-0.620951 4:-0.205645 5:-0.72497 6:-0.670807 7:-0.551334 8:-0.157097 9:-0.568544 10:-0.14056 
512 1:-0.900834 2:-0.594326 3:-0.919432 4:-0.510745 5:-0.749095 6:-0.413043 7:-0.879809 8:-0.579234 9:-0.900834 10:-0.594326 
231.1287544234104 1:-0.687022 2:-0.0634468 3:-0.724515 4:-0.130835 5:-0.983112 6:-0.970497 7:-0.735495 8:-0.107785 9:-0.687023 10:-0.0634468 
6.383785839608423 1:-0.465621 2:0.423426 3:-0.567503 4:0.0177519 5:-0.932449 6:-0.847826 7:-0.549109 8:0.284184 9:-0.465621 10:0.423426 
341.8149660948844 1:-0.563731 2:-0.00893927 3:-0.621664 4:-0.0874062 5:-0.73462 6:-0.726708 7:-0.571382 8:-0.0269695 9:-0.563731 10:-0.0089392 
512 1:-0.341602 2:-0.437611 3:-0.194005 4:-0.306679 5:-0.358263 6:-0.543478 7:-0.145614 8:-0.477183 9:-0.341602 10:-0.437612 
512 1:-0.55357 2:-0.516862 3:-0.476706 4:-0.177229 5:-0.565742 6:-0.428571 7:-0.365898 8:-0.438276 9:-0.55357 10:-0.516862 
512 1:-0.533675 2:-0.428184 3:-0.398993 4:-0.117948 5:-0.145959 6:0.270186 7:-0.261255 8:-0.352905 9:-0.533675 10:-0.428184 
430.8401808333288 1:-0.372477 2:0.392585 3:-0.284247 4:0.476594 5:-0.367913 6:-0.226708 7:-0.217134 8:0.295072 9:-0.372478 10:0.392585 
512 1:-0.481331 2:-0.593108 3:-0.464415 4:-0.371887 5:-0.242461 6:-0.495342 7:-0.254231 8:-0.548433 9:-0.481332 10:-0.593108 
512 1:-0.168909 2:-0.352532 3:-0.0888545 4:-0.381037 5:-0.850422 6:-0.857143 7:-0.124066 8:-0.395309 9:-0.168909 10:-0.352533 
512 1:-0.56626 2:-0.758614 3:-0.517624 4:-0.68865 5:-0.71532 6:-0.73913 7:-0.40497 8:-0.733062 9:-0.566261 10:-0.758614 
512 1:-0.248299 2:5.06926e-005 3:-0.157369 4:-0.0340539 5:-0.932449 6:-0.936335 7:-0.181911 8:-0.0718916 9:-0.248299 10:5.08818e-005 
512 1:-0.626725 2:-0.553084 3:-0.576226 4:-0.345791 5:-0.297949 6:-0.560559 7:-0.304627 8:-0.559375 9:-0.626725 10:-0.553084 
512 1:-0.695458 2:-0.136104 3:-0.722454 4:-0.157447 5:-0.951749 6:-0.92236 7:-0.655876 8:-0.136062 9:-0.695458 10:-0.136104 
512 1:-0.536815 2:-0.71146 3:-0.548313 4:-0.716872 5:-0.0301568 6:0.169255 7:-0.380072 8:-0.696693 9:-0.536815 10:-0.711461 
436.1082488200236 1:-0.330457 2:-0.414787 3:-0.282741 4:-0.0966204 5:-0.0277443 6:-0.290373 7:-0.0920681 8:-0.433469 9:-0.330457 10:-0.414787 
326.3053679288507 1:-0.993921 2:-0.699991 3:-0.994608 4:-0.602565 5:-0.881785 6:-0.872671 7:-1 8:-0.721127 9:-0.993921 10:-0.699991 
512 1:-0.767313 2:-0.473962 3:-0.791444 4:-0.285737 5:-0.466828 6:-0.524845 7:-0.744419 8:-0.430563 9:-0.767313 10:-0.473962 
512 1:-0.745129 2:-0.351019 3:-0.710321 4:-0.308612 5:-0.922799 6:-0.925466 7:-0.721721 8:-0.368535 9:-0.745129 10:-0.351019 
80.14260750050089 1:-0.693249 2:-0.453795 3:-0.643551 4:-0.344824 5:-0.756333 6:-0.821429 7:-0.625778 8:-0.461946 9:-0.693249 10:-0.453795 
115.1870274721557 1:-0.425245 2:-0.412857 3:-0.415884 4:-0.124585 5:-0.785283 6:-0.82764 7:-0.328825 8:-0.354923 9:-0.425245 10:-0.412857 
209.7404757714192 1:-0.132732 2:-0.570923 3:-0.212323 4:-0.42453 5:-0.652593 6:-0.618012 7:-0.130915 8:-0.596501 9:-0.132732 10:-0.570923 
512 1:-0.755097 2:-0.670745 3:-0.79755 4:-0.539676 5:-0.428227 6:-0.582298 7:-0.605705 8:-0.684289 9:-0.755097 10:-0.670744 
512 1:-0.47919 2:-0.0524639 3:-0.537687 4:-0.143336 5:-0.515078 6:-0.0232919 7:-0.461441 8:-0.103031 9:-0.47919 10:-0.0524639 
512 1:-0.662002 2:-0.327677 3:-0.624043 4:-0.139019 5:-0.915561 6:-0.920807 7:-0.677849 8:-0.289586 9:-0.662003 10:-0.327677 
503.9692807442012 1:-0.795045 2:-0.860201 3:-0.821974 4:-0.766487 5:-0.464415 6:-0.608696 7:-0.690873 8:-0.827975 9:-0.795045 10:-0.860201 
512 1:-0.63916 2:-0.12544 3:-0.610166 4:-0.0941074 5:-0.855247 6:-0.841615 7:-0.613429 8:-0.139022 9:-0.63916 10:-0.12544 
512 1:-0.197404 2:-0.568333 3:-0.106459 4:-0.39721 5:-0.799759 6:-0.850932 7:0.00472459 8:-0.589239 9:-0.197404 10:-0.568333 
-512 1:-0.323752 2:-0.416464 3:-0.231989 4:-0.242501 5:-0.73462 6:-0.680124 7:-0.0704449 8:-0.380722 9:-0.323752 10:-0.416465 
-456.4963783288584 1:-0.316842 2:-0.530982 3:-0.339677 4:-0.601534 5:-0.855247 6:-0.838509 7:-0.181586 8:-0.52112 9:-0.316843 10:-0.530982 
-512 1:-0.655057 2:-0.760014 3:-0.645296 4:-0.801604 5:-0.983112 6:-0.959627 7:-0.614054 8:-0.757253 9:-0.655057 10:-0.760014 
-270.8216212478893 1:-0.872988 2:-1 3:-0.933706 4:-0.969844 5:-0.975875 6:-0.916149 7:-0.953129 8:-0.999007 9:-0.872988 10:-1 
-512 1:-0.417361 2:-0.271678 3:-0.29408 4:0.0321209 5:-0.377563 6:-0.434783 7:-0.0697949 8:-0.246779 9:-0.417361 10:-0.271678 
-512 1:-0.225425 2:0.220438 3:-0.0867135 4:0.297207 5:-0.353438 6:-0.409938 7:-0.144264 8:0.206014 9:-0.225425 10:0.220438 
-135.1560731059204 1:-0.0935906 2:0.0836818 3:-0.119305 4:-0.0467476 5:0.0156815 6:0.664596 7:-0.0106992 8:0.0494492 9:-0.0935907 10:0.0836821 
-512 1:-0.354837 2:0.111986 3:-0.236192 4:0.179097 5:-0.18456 6:-0.371118 7:-0.0711197 8:0.0759698 9:-0.354837 10:0.111986 
-512 1:-0.514843 2:-0.25158 3:-0.434519 4:-0.184445 5:-0.517491 6:-0.582298 7:-0.425968 8:-0.194379 9:-0.514843 10:-0.25158 
-512 1:-0.641042 2:-0.569243 3:-0.534911 4:-0.400432 5:-0.814234 6:-0.849379 7:-0.439067 8:-0.494025 9:-0.641042 10:-0.569243 
-512 1:-0.279893 2:-0.576874 3:-0.19345 4:-0.484842 5:-0.242461 6:-0.687888 7:0.0379472 8:-0.610637 9:-0.279893 10:-0.576874 
-512 1:-0.508134 2:-0.833797 3:-0.594068 4:-0.790071 5:-0.517491 6:-0.757764 7:-0.434468 8:-0.859105 9:-0.508135 10:-0.833797 
-499.4451512340607 1:-0.236926 2:-0.760247 3:-0.439277 4:-0.7998 5:-0.305187 6:-0.360248 7:-0.281129 8:-0.802054 9:-0.236926 10:-0.760247 
-512 1:-0.332563 2:-0.456786 3:-0.363784 4:-0.50675 5:-0.172497 6:-0.0295031 7:-0.236657 8:-0.580817 9:-0.332563 10:-0.456786 
-512 1:-0.374378 2:-0.0373068 3:-0.411601 4:-0.0958472 5:-0.191797 6:-0.121118 7:-0.333375 8:-0.118344 9:-0.374378 10:-0.0373066 
-512 1:-0.529489 2:-0.147605 3:-0.553467 4:-0.139083 5:-0.946924 6:-0.96118 7:-0.488663 8:-0.146275 9:-0.52949 10:-0.147605 
-512 1:-0.206504 2:-0.393768 3:-0.0436541 4:-0.108992 5:-0.483715 6:-0.697205 7:0.0982927 8:-0.370884 9:-0.206504 10:-0.393768 
-512 1:-0.588931 2:-0.2994 3:-0.449189 4:-0.00119205 5:-0.503016 6:-0.350932 7:-0.411544 8:-0.2542 9:-0.588931 10:-0.2994 
-512 1:-0.343513 2:-0.618529 3:-0.290195 4:-0.506427 5:-0.462002 6:-0.65528 7:-0.153789 8:-0.583606 9:-0.343513 10:-0.618529 
-431.2681611485566 1:0.356563 2:0.21422 3:0.654732 4:0.264603 5:-0.351025 6:-0.673913 7:0.577282 8:0.0568091 9:0.356563 10:0.21422 
-512 1:-0.614334 2:-0.436118 3:-0.597875 4:-0.367183 5:-0.433052 6:-0.627329 7:-0.493138 8:-0.434837 9:-0.614334 10:-0.436118 
-512 1:-0.76805 2:-0.335362 3:-0.792633 4:-0.311125 5:-0.594692 6:-0.579193 7:-0.715596 8:-0.394029 9:-0.768051 10:-0.335362 
-512 1:-0.655186 2:-0.209866 3:-0.647437 4:-0.149973 5:-0.314837 6:-0.32764 7:-0.560108 8:-0.267622 9:-0.655186 10:-0.209866 
-512 1:-0.276616 2:0.100491 3:-0.260695 4:0.0785786 5:-0.874548 6:-0.892857 7:-0.3306 8:0.0138271 9:-0.276616 10:0.100491 
-120.0849325995516 1:-0.782687 2:-0.635875 3:-0.825384 4:-0.453462 5:-0.121834 6:0.0124224 7:-0.613854 8:-0.606089 9:-0.782687 10:-0.635876 
-87.85645158933372 1:0.0247908 2:-0.263937 3:0.361564 4:-0.0766455 5:-0.0904704 6:-0.487578 7:0.369222 8:-0.35884 9:0.0247907 10:-0.263937 
-512 1:-0.369511 2:-0.168349 3:-0.393521 4:-0.277812 5:-0.770808 6:-0.440994 7:-0.337075 8:-0.178041 9:-0.369512 10:-0.168349 
-512 1:-0.492023 2:-0.513398 3:-0.442925 4:-0.407777 5:-0.515078 6:-0.175466 7:-0.447392 8:-0.482157 9:-0.492023 10:-0.513398 
-512 1:-0.114344 2:-0.189301 3:0.115023 4:-0.0879216 5:-0.0422195 6:-0.454969 7:0.167012 8:-0.238983 9:-0.114344 10:-0.189302 
-512 1:-0.356313 2:-0.400244 3:-0.326593 4:-0.314862 5:-0.657419 6:-0.690994 7:-0.291953 8:-0.372054 9:-0.356313 10:-0.400244 
-1.517536801892345 1:1 2:0.160216 3:1 4:-0.0139502 5:0.587455 6:-0.0590062 7:1 8:-0.00142642 9:1 10:0.160216 
-512 1:-0.649169 2:-0.594344 3:-0.621268 4:-0.442637 5:-0.406514 6:-0.371118 7:-0.545484 8:-0.604238 9:-0.649169 10:-0.594344 
-512 1:-0.614329 2:-0.148436 3:-0.637366 4:-0.154032 5:-0.536791 6:-0.596273 7:-0.501037 8:-0.197062 9:-0.61433 10:-0.148436 
-512 1:-0.0441371 2:-0.303337 3:0.225645 4:-0.0645962 5:-0.382388 6:-0.512422 7:0.280554 8:-0.386256 9:-0.0441375 10:-0.303337 
-512 1:-0.480606 2:-0.572211 3:-0.598668 4:-0.348755 5:-0.609168 6:-0.694099 7:-0.441567 8:-0.514419 9:-0.480606 10:-0.572211 
-512 1:-0.616363 2:-0.162194 3:-0.5928 4:-0.0665292 5:-0.256936 6:0.00776398 7:-0.497413 8:-0.180409 9:-0.616364 10:-0.162194 
-55.14438402645448 1:-0.323739 2:0.0195736 3:-0.273621 4:0.155901 5:0.155609 6:0.203416 7:-0.0563958 8:-0.043684 9:-0.323739 10:0.0195737 
-512 1:-0.50519 2:-0.0806045 3:-0.543555 4:-0.0654338 5:-0.797346 6:-0.785714 7:-0.457091 8:-0.145715 9:-0.50519 10:-0.0806048 
-512 1:-0.310398 2:0.24674 3:-0.368939 4:0.0554464 5:-0.874548 6:-0.880435 7:-0.323076 8:0.167178 9:-0.310398 10:0.246741 
-512 1:-0.0913144 2:0.00419058 3:-0.138496 4:-0.0570573 5:-0.691194 6:-0.709627 7:-0.119741 8:-0.0595405 9:-0.0913148 10:0.00419061 
-357.94035393042 1:-0.737332 2:-0.171981 3:-0.75679 4:-0.06131 5:-0.490953 6:-0.35559 7:-0.582231 8:-0.167856 9:-0.737332 10:-0.171981 
-237.7039367017144 1:-0.0910704 2:0.616557 3:-0.124143 4:0.341925 5:-0.88661 6:-0.85559 7:-0.13564 8:0.454317 9:-0.0910708 10:0.616557 
-512 1:-0.0872782 2:0.219896 3:-0.109472 4:0.137537 5:-0.107358 6:-0.125776 7:0.0671698 8:0.0987227 9:-0.0872782 10:0.219896 
-512 1:-0.695849 2:0.0519739 3:-0.704135 4:0.0720062 5:-0.958987 6:-0.945652 7:-0.740245 8:-0.0232537 9:-0.695849 10:0.0519737 
-512 1:-0.179121 2:-0.0206884 3:-0.117244 4:-0.0351493 5:-0.553679 6:-0.631988 7:-0.0314228 8:-0.124745 9:-0.179121 10:-0.0206881 
-512 1:-0.13872 2:-0.374441 3:0.142302 4:-0.228712 5:0.0446321 6:-0.486025 7:0.214659 8:-0.400451 9:-0.13872 10:-0.374441 
-512 1:-0.897611 2:-0.300424 3:-0.880179 4:-0.231547 5:-0.869723 6:-0.737578 7:-0.806265 8:-0.30768 9:-0.897611 10:-0.300424 
-512 1:-0.11867 2:-0.398389 3:0.0586416 4:-0.215245 5:-0.295537 6:-0.540373 7:0.13099 8:-0.402736 9:-0.11867 10:-0.398389 
-291.5764715336817 1:-0.0238929 2:0.508722 3:-0.035407 4:0.260479 5:-0.48854 6:-0.714286 7:0.0308227 8:0.332501 9:-0.0238929 10:0.508723 
-512 1:-0.250101 2:0.61837 3:-0.325959 4:0.325236 5:-0.862485 6:-0.826087 7:-0.287104 8:0.47519 9:-0.250101 10:0.618371 
-512 1:-0.25453 2:-0.470666 3:-0.226993 4:-0.282129 5:-0.264174 6:-0.0496894 7:-0.0425217 8:-0.500534 9:-0.25453 10:-0.470666 
-512 1:-0.688859 2:-0.19119 3:-0.724832 4:-0.155901 5:-0.855247 6:-0.815217 7:-0.771092 8:-0.270334 9:-0.688859 10:-0.19119 
-124.0150589331443 1:-0.552399 2:-0.230085 3:-0.386226 4:0.110603 5:-0.112183 6:-0.263975 7:-0.314801 8:-0.185536 9:-0.552399 10:-0.230086 
-17.20416242850038 1:-0.446515 2:-0.476952 3:-0.306213 4:-0.306357 5:0.0542823 6:0.274845 7:-0.116966 8:-0.482957 9:-0.446516 10:-0.476953 
-284.7305912312147 1:0.315111 2:-0.279016 3:0.556164 4:-0.128322 5:-0.387214 6:-0.414596 7:0.615354 8:-0.33368 9:0.315111 10:-0.279016 
-475.0844199433593 1:-0.667422 2:-0.62476 3:-0.649736 4:-0.42917 5:0.22316 6:-0.119565 7:-0.46409 8:-0.585661 9:-0.667422 10:-0.62476 
-286.1130894908707 1:-0.914098 2:-0.567271 3:-0.909758 4:-0.446632 5:-0.575392 6:-0.403727 7:-0.776867 8:-0.572642 9:-0.914098 10:-0.567272 
-286.516520390966 1:-1 2:-0.750891 3:-1 4:-0.622024 5:-0.739445 6:-0.487578 7:-0.851711 8:-0.654691 9:-1 10:-0.750891 
-261.2229004244665 1:-0.578125 2:-0.388275 3:-0.446017 4:-0.193337 5:-0.599517 6:-0.456522 7:-0.266955 8:-0.345083 9:-0.578125 10:-0.388275 
-512 1:0.0732053 2:0.0509508 3:0.267674 4:0.0700731 5:-0.901086 6:-0.838509 7:0.218359 8:-0.0353973 9:0.0732052 10:0.0509511 
-439.2659638355215 1:-0.488544 2:-0.294612 3:-0.448 4:-0.0299945 5:-0.917973 6:-0.90528 7:-0.19601 8:-0.274863 9:-0.488544 10:-0.294612 
-512 1:-0.114547 2:-0.55256 3:0.0277943 4:-0.209833 5:-0.642943 6:-0.756211 7:0.178312 8:-0.489251 9:-0.114547 10:-0.552561 
-462.1091214274441 1:-0.402551 2:-0.56184 3:-0.291781 4:-0.296434 5:-0.437877 6:-0.318323 7:-0.0834439 8:-0.51124 9:-0.402551 10:-0.56184 
-311.2399224402799 1:-0.824433 2:-0.707463 3:-0.868681 4:-0.578659 5:-0.72497 6:-0.759317 7:-0.558758 8:-0.606546 9:-0.824433 10:-0.707463 
-20.43721393743536 1:-0.179877 2:-0.618875 3:-0.0797351 4:-0.450047 5:-0.341375 6:-0.583851 7:0.176712 8:-0.675356 9:-0.179877 10:-0.618875 
-512 1:-0.523615 2:-0.200281 3:-0.504302 4:-0.148168 5:-0.927624 6:-0.908385 7:-0.413744 8:-0.20828 9:-0.523616 10:-0.200281 
-512 1:-0.799709 2:-0.362095 3:-0.772412 4:-0.110925 5:-0.642943 6:-0.753106 7:-0.615979 8:-0.339833 9:-0.799709 10:-0.362095 
-512 1:-0.290773 2:0.0762822 3:-0.333016 4:-0.0381133 5:-0.963812 6:-0.878882 7:-0.305327 8:0.0458761 9:-0.290773 10:0.076282 
-512 1:-0.532882 2:-0.0213966 3:-0.508584 4:-0.0653049 5:-0.739445 6:-0.708075 7:-0.462615 8:-0.0613775 9:-0.532882 10:-0.0213967 
-139.6214011925965 1:-0.630369 2:0.299927 3:-0.555053 4:0.307645 5:-0.138721 6:0.225155 7:-0.52916 8:0.226138 9:-0.630369 10:0.299927 
