svm_type c_svc
kernel_type rbf
gamma 0.03125
nr_class 2
total_sv 168
rho -11.8439
label 3 4
probA -0.479772
probB 0.0540993
nr_sv 83 85
SV
32768 1:0.427835 2:-0.768696 3:0.969826 4:-0.880084 
32768 1:-0.910077 2:-0.918474 3:0.917293 4:-0.534022 
32768 1:-0.126426 2:-0.915947 3:0.961147 4:-0.782255 
32768 1:-0.579884 2:-0.900105 3:0.987088 4:-0.888282 
32768 1:0.526032 2:-0.900963 3:1 4:-1 
32768 1:0.823089 2:-0.695977 3:0.413669 4:-0.160371 
32768 1:0.223517 2:-0.915353 3:0.395895 4:-0.452456 
32768 1:0.0233973 2:-0.744955 3:0.891685 4:-0.394982 
5629.809943664831 1:-0.655025 2:-0.590546 3:0.754047 4:-0.376971 
24894.40930936662 1:0.623735 2:-0.401279 3:0.88787 4:-0.342151 
32768 1:-0.412618 2:-0.970737 3:0.296125 4:-0.779254 
32768 1:-0.667461 2:-0.892772 3:0.808248 4:-0.291021 
32768 1:0.0657573 2:-0.602975 3:0.436686 4:-0.268566 
32768 1:-0.849068 2:-0.915968 3:0.799397 4:-0.00506099 
32768 1:0.646302 2:-0.310316 3:0.944716 4:-0.582298 
32768 1:-0.254691 2:-0.841379 3:0.993009 4:-0.934066 
32768 1:0.888013 2:-0.49457 3:1 4:-1 
32768 1:0.0768297 2:-0.858972 3:0.906963 4:-0.67128 
32768 1:0.526412 2:-0.928288 3:0.890863 4:-0.591738 
32768 1:0.626469 2:-0.80911 3:0.838933 4:-0.525071 
32768 1:-0.800742 2:-0.848974 3:0.716467 4:-0.347306 
32768 1:0.00250976 2:-0.677528 3:0.465974 4:0.013329 
32768 1:0.840042 2:-0.194451 3:0.724704 4:-0.103902 
32768 1:-0.301019 2:-0.80534 3:0.991848 4:-0.84654 
32768 1:-0.801832 2:-0.909093 3:0.918092 4:-0.693504 
22547.87140810428 1:0.200773 2:-0.648917 3:0.966691 4:-0.657328 
32768 1:-0.311396 2:-0.78165 3:0.976532 4:-0.759361 
19320.4464309964 1:0.51986 2:-0.861927 3:0.993544 4:-0.865766 
32768 1:0.157064 2:-0.873234 3:0.997737 4:-0.940067 
32768 1:-0.852367 2:-0.814791 3:0.834099 4:-0.24929 
32768 1:0.108449 2:-0.730993 3:0.612973 4:0.137117 
32768 1:0.813931 2:-0.0538694 3:0.999184 4:-0.972991 
32768 1:-0.647917 2:-0.891956 3:-0.166232 4:0.401069 
32768 1:-0.149735 2:-0.860463 3:0.219439 4:-0.553183 
32768 1:-0.999204 2:-0.961431 3:0.945407 4:-0.817316 
32768 1:-0.158006 2:-0.901332 3:0.839074 4:-0.855166 
32768 1:0.734715 2:-0.487636 3:0.979781 4:-0.89532 
32768 1:0.291228 2:-0.765446 3:0.985582 4:-0.812326 
24577.26916155523 1:-0.110983 2:-0.801776 3:1 4:-1 
30063.40306387185 1:-0.906684 2:-0.878108 3:0.944791 4:-0.695464 
32768 1:-0.830469 2:-0.961384 3:0.969145 4:-0.831258 
32768 1:0.0396616 2:-0.665961 3:0.929575 4:-0.529989 
191.8726645337278 1:0.844105 2:-0.517465 3:1 4:-1 
32768 1:0.362219 2:-0.549735 3:0.702153 4:-0.155074 
32768 1:-0.34988 2:-0.71953 3:0.773816 4:-0.432461 
32768 1:0.574085 2:-0.687556 3:0.89558 4:-0.518945 
32768 1:-0.578659 2:-0.968197 3:1 4:-1 
32768 1:-0.941083 2:-0.955776 3:0.974602 4:-0.735162 
32768 1:0.0691096 2:-0.797049 3:1 4:-1 
32768 1:0.152639 2:-0.586782 3:0.912404 4:-0.696704 
32768 1:-0.689639 2:-0.8978 3:0.395323 4:0.545485 
21373.93409114649 1:-0.822283 2:-0.748394 3:0.712807 4:0.0433355 
894.6605329008859 1:0.716817 2:-0.433374 3:1 4:-1 
28194.25950994672 1:-0.612324 2:-0.777274 3:0.951103 4:-0.412586 
32768 1:-0.648659 2:-0.930734 3:0.976055 4:-0.718999 
32768 1:0.343299 2:-0.768703 3:0.96739 4:-0.670993 
32768 1:-0.50734 2:-0.883269 3:0.981388 4:-0.902526 
32768 1:0.430281 2:-0.71602 3:0.948497 4:-0.76798 
32768 1:-0.677967 2:-0.967429 3:0.727892 4:-0.00733438 
32768 1:-0.766862 2:-0.863465 3:0.728415 4:-0.341228 
32768 1:-0.10279 2:-0.834082 3:0.669324 4:-0.318835 
32768 1:-0.718177 2:-0.88426 3:0.706098 4:-0.0410667 
32768 1:0.631822 2:-0.762392 3:0.342182 4:-0.471427 
32768 1:0.261888 2:-0.841981 3:0.334008 4:-0.73096 
32768 1:0.246899 2:-0.538035 3:0.509726 4:-0.326692 
17302.70350737201 1:0.427446 2:-0.115754 3:1 4:-1 
32768 1:-0.896237 2:-0.952779 3:0.417992 4:0.00303939 
8938.114466736552 1:0.698116 2:-0.845822 3:0.847964 4:-0.476317 
32768 1:0.411063 2:-0.912913 3:0.583737 4:-0.217491 
32768 1:-0.579989 2:-0.907936 3:1 4:-1 
32768 1:0.897159 2:-0.482839 3:1 4:-1 
32768 1:-0.684198 2:-0.896618 3:0.987028 4:-0.917316 
32768 1:-0.0379315 2:-0.8107 3:0.965626 4:-0.83723 
32768 1:-0.239234 2:-0.802183 3:0.579077 4:-0.10805 
32768 1:0.339241 2:0.0223048 3:0.987976 4:-0.821794 
32768 1:0.604481 2:-0.746163 3:0.818228 4:-0.314957 
32768 1:-0.941294 2:-0.962312 3:0.723769 4:-0.299722 
32768 1:-0.803686 2:-0.856008 3:0.848002 4:-0.254678 
32768 1:0.427866 2:0.583493 3:0.928048 4:-0.556806 
32768 1:0.364015 2:-0.893586 3:1 4:-1 
32768 1:-0.324037 2:-0.723158 3:0.800321 4:-0.23442 
32768 1:-0.49824 2:-0.802988 3:0.980542 4:-0.754901 
32768 1:-0.611949 2:-0.90154 3:0.629456 4:-0.878802 
-9788.052015991832 1:-0.855379 2:-0.950097 3:0.17343 4:0.751358 
-32768 1:-0.694117 2:-0.859579 3:0.807396 4:-1 
-32768 1:-0.766871 2:-0.91384 3:0.734839 4:-0.284433 
-32064.31911878402 1:-0.93233 2:-0.914799 3:0.0502208 4:0.0862583 
-32768 1:-0.703231 2:-0.810286 3:0.575125 4:0.0348905 
-32768 1:-0.636968 2:-0.940627 3:0.807113 4:-0.487858 
-32768 1:-0.856832 2:-0.802701 3:0.942145 4:-0.63201 
-32768 1:-0.958732 2:-0.937368 3:0.95347 4:-0.858785 
-32768 1:-0.69776 2:-0.924092 3:0.807144 4:-0.988713 
-32768 1:-0.73378 2:-0.982605 3:0.991515 4:-0.886512 
-1473.912313746264 1:-0.838627 2:-0.975315 3:-0.248819 4:-0.677004 
-32768 1:-0.637294 2:-0.966405 3:0.700631 4:-0.129485 
-32768 1:-0.641475 2:-0.70433 3:0.874624 4:-0.288307 
-32768 1:-0.468328 2:-0.910546 3:0.83969 4:-0.477735 
-32768 1:-0.608576 2:-0.901466 3:0.685499 4:-0.804381 
-32768 1:-0.939888 2:-0.90224 3:0.9718 4:-0.677659 
-32768 1:-0.87492 2:-0.947618 3:0.972403 4:-0.816832 
-32768 1:-0.307156 2:-0.8396 3:0.156249 4:0.0357578 
-32768 1:0.347396 2:-0.655221 3:0.962392 4:-0.599791 
-5948.05973984249 1:0.155001 2:-0.909992 3:-0.751788 4:-0.277163 
-32768 1:-0.0509736 2:-0.748304 3:0.639104 4:-0.955353 
-15398.18995168696 1:0.177772 2:-0.961415 3:0.47997 4:-1 
-32768 1:0.886275 2:-0.55028 3:0.752719 4:-0.78123 
-32768 1:0.128089 2:-0.25875 3:0.967288 4:-0.876122 
-32768 1:0.155328 2:-0.491578 3:0.952624 4:-0.85792 
-32768 1:0.113223 2:-0.593366 3:1 4:-1 
-32768 1:-0.369051 2:-0.862703 3:0.834064 4:-0.560174 
-32768 1:0.375526 2:-0.941744 3:0.961749 4:-0.757419 
-32768 1:0.463382 2:-0.660989 3:1 4:-1 
-32768 1:0.961559 2:-0.360375 3:0.942148 4:-0.648618 
-5858.640168591696 1:0.148676 2:1 3:0.97619 4:-0.688934 
-32768 1:0.30668 2:-0.0479232 3:0.960992 4:-0.499989 
-32768 1:-0.779383 2:-0.968767 3:1 4:-1 
-32768 1:-0.0707811 2:-0.75984 3:0.63135 4:-0.620546 
-15322.85076920144 1:0.221963 2:0.120381 3:0.701494 4:-0.192698 
-32768 1:0.43618 2:-0.768992 3:0.99436 4:-0.944378 
-32768 1:-0.0224134 2:-0.844063 3:1 4:-1 
-32768 1:0.700423 2:-0.741108 3:1 4:-1 
-32768 1:0.235223 2:-0.690566 3:0.792864 4:-0.684551 
-32768 1:-0.643551 2:-0.774687 3:0.891987 4:-0.210106 
-32768 1:0.699231 2:0.411489 3:0.96506 4:-0.627249 
-3402.98067139598 1:0.374002 2:-0.845047 3:0.195482 4:-0.469702 
-32768 1:0.799761 2:-0.501281 3:0.561125 4:-0.125206 
-32768 1:-0.76662 2:-0.928752 3:0.855591 4:-0.270851 
-32768 1:-0.237082 2:-0.462028 3:0.934452 4:-0.355124 
-32768 1:0.861524 2:-0.413224 3:0.917093 4:-0.836649 
-32768 1:0.305651 2:-0.545202 3:0.567315 4:0.154067 
-32768 1:0.607212 2:-0.764953 3:0.476097 4:-0.474462 
-32768 1:0.677795 2:-0.275058 3:0.783869 4:-0.694374 
-32768 1:-0.182653 2:-0.923366 3:0.117441 4:0.329997 
-32768 1:0.452861 2:-0.839414 3:0.410352 4:-0.435734 
-32768 1:0.307762 2:-0.795858 3:0.107121 4:0.174738 
-32768 1:-0.396167 2:-0.912016 3:1 4:-1 
-32768 1:-0.563598 2:-0.914012 3:0.746447 4:-0.269914 
-32768 1:-0.0570359 2:-0.766781 3:0.673253 4:-0.14029 
-32768 1:0.295012 2:-0.734579 3:0.781302 4:-0.34481 
-32768 1:-0.7771 2:-0.926314 3:0.857962 4:-0.184664 
-32768 1:0.539725 2:-0.624435 3:0.849293 4:-0.339687 
-32768 1:-0.797575 2:-0.92261 3:0.860241 4:-0.273911 
-32768 1:0.0380726 2:-0.818175 3:0.98024 4:-0.765185 
-32768 1:0.762455 2:-0.515206 3:0.962319 4:-0.693501 
-32768 1:-0.770755 2:-0.957551 3:0.629227 4:0.247083 
-32768 1:0.517755 2:-0.858023 3:0.985147 4:-0.835106 
-32768 1:-0.0377066 2:-0.694926 3:0.76103 4:-0.7276 
-32768 1:-0.715431 2:-0.936219 3:1 4:-1 
-32768 1:0.304179 2:-0.756036 3:0.917395 4:-0.445771 
-32768 1:-0.561527 2:-0.69757 3:0.640241 4:-0.611287 
-32768 1:0.633071 2:-0.891549 3:1 4:-1 
-10686.66887653231 1:0.811622 2:-0.625333 3:0.515782 4:-0.485184 
-32768 1:0.0430214 2:-0.8769 3:1 4:-1 
-32768 1:-0.0723644 2:-0.75309 3:0.897755 4:-0.505764 
-32768 1:0.616086 2:-0.523065 3:0.887822 4:-0.323588 
-32768 1:-0.484892 2:-0.880951 3:0.841357 4:-0.419583 
-3459.746945398842 1:-0.368925 2:-0.799472 3:0.455143 4:-0.457445 
-32768 1:-0.785392 2:-0.92503 3:0.626457 4:-0.0322217 
-32768 1:0.120546 2:-0.749087 3:0.97932 4:-0.723138 
-2221.33351902404 1:0.559645 2:-0.770834 3:0.543205 4:-0.77535 
-32768 1:0.00969741 2:-0.975426 3:0.815671 4:-0.279994 
-32768 1:-0.834561 2:-0.950274 3:0.95308 4:-0.398973 
-32768 1:-0.0819729 2:-0.848118 3:0.969489 4:-0.791898 
-32768 1:0.618283 2:-0.84785 3:0.840325 4:-0.619257 
-32768 1:-0.150639 2:-0.921967 3:0.99212 4:-0.882395 
-32768 1:0.19498 2:-0.923012 3:0.981606 4:-0.826055 
-32768 1:-0.962965 2:-0.97072 3:0.768794 4:-0.395464 
-32768 1:-0.176304 2:-0.817271 3:0.943615 4:-0.798418 
