svm_type c_svc
kernel_type rbf
gamma 0.00195313
nr_class 2
total_sv 99
rho -35.1732
label 1 2
probA -0.990638
probB -0.0195876
nr_sv 49 50
SV
2048 1:0.177936 2:-0.33663 3:0.10377 4:0.0291177 5:-0.095373 6:-0.171964 7:0.3153 8:-0.402225 9:0.177936 10:-0.336631 
2048 1:0.0854961 2:-0.0428983 3:0.0502162 4:0.462908 5:-0.542965 6:-0.758761 7:0.277053 8:-0.0411809 9:0.0854961 10:-0.0428985 
2048 1:-0.0384053 2:-0.451555 3:-0.0213153 4:0.328001 5:-0.654391 6:-0.660962 7:0.369279 8:-0.322585 9:-0.0384051 10:-0.451555 
2048 1:-1 2:-0.973974 3:-1 4:-1 5:-0.197356 6:-0.299104 7:-1 8:-0.97519 9:-1 10:-0.973974 
2048 1:0.0926344 2:-0.187043 3:0.209664 4:0.515973 5:0.229462 6:-0.154034 7:0.235533 8:-0.200282 9:0.0926341 10:-0.187043 
2048 1:0.13728 2:-0.415061 3:-0.15429 4:-0.257962 5:-0.163362 6:-0.613692 7:0.0575062 8:-0.51118 9:0.13728 10:-0.415061 
2048 1:-0.305325 2:-0.268595 3:-0.374953 4:-0.0424816 5:0.169027 6:0.0529747 7:-0.270388 8:-0.178996 9:-0.305324 10:-0.268595 
378.0143819591829 1:0.56014 2:0.107624 3:0.537586 4:0.423206 5:0.0254958 6:0.00570497 7:0.718069 8:0.0879541 9:0.560139 10:0.107624 
2048 1:-0.875673 2:-0.54893 3:-0.87097 4:-0.294835 5:-0.240793 6:0.313773 7:-0.932572 8:-0.485407 9:-0.875673 10:-0.54893 
2048 1:-0.591908 2:-0.808945 3:-0.541227 4:-0.472467 5:-0.118036 6:0.0757946 7:-0.506957 8:-0.80681 9:-0.591908 10:-0.808946 
2048 1:-0.0340264 2:-0.0625808 3:-0.200713 4:0.0415061 5:-0.420208 6:-0.662592 7:0.0249928 8:-0.161149 9:-0.0340263 10:-0.0625807 
2048 1:0.686372 2:-0.205042 3:0.57248 4:0.22226 5:-0.0972616 6:-0.525672 7:0.781354 8:-0.249212 9:0.686372 10:-0.205042 
2048 1:0.0508617 2:-0.246761 3:-0.0829098 4:0.0528215 5:-0.329556 6:-0.742461 7:0.016767 8:-0.219382 9:0.0508617 10:-0.246761 
2048 1:-0.273371 2:0.0477309 3:-0.472578 4:0.0964249 5:-0.261568 6:-0.0872046 7:-0.290893 8:0.0718629 9:-0.273371 10:0.047731 
2048 1:-0.59324 2:-0.507373 3:-0.652355 4:-0.154368 5:-0.220019 6:-0.282804 7:-0.593509 8:-0.346064 9:-0.59324 10:-0.507372 
2048 1:0.663595 2:-0.64794 3:-0.0395964 4:-0.579866 5:-0.597734 6:-0.651182 7:0.280416 8:-0.661488 9:0.663595 10:-0.64794 
2048 1:0.055766 2:-0.486661 3:0.107639 4:-0.148417 5:-0.0897073 6:-0.349633 7:0.240007 8:-0.549689 9:0.0557658 10:-0.486661 
2048 1:-0.106938 2:-0.847269 3:-0.195403 4:-0.740233 5:-0.157696 6:-0.393643 7:-0.0668126 8:-0.943703 9:-0.106938 10:-0.847269 
625.2546205307339 1:0.674336 2:-0.15875 3:0.290374 4:0.11691 5:1 6:0.344743 7:0.502394 8:-0.228886 9:0.674336 10:-0.15875 
2048 1:0.0398422 2:-0.00159851 3:-0.0925434 4:0.0685266 5:-0.0538244 6:0.303993 7:0.00421797 8:-0.034734 9:0.0398423 10:-0.00159875 
2048 1:0.0495761 2:-0.395988 3:-0.0540848 4:-0.0947666 5:-0.461756 6:-0.94458 7:0.193414 8:-0.441888 9:0.0495762 10:-0.395988 
2048 1:-0.722756 2:-0.980171 3:-0.787909 4:-0.923426 5:-0.622285 6:-0.97718 7:-0.590507 8:-1 9:-0.722756 10:-0.980172 
2048 1:0.290056 2:0.0217116 3:-0.0140332 4:0.134663 5:-0.0254958 6:-0.250204 7:0.25847 8:-0.0648835 9:0.290055 10:0.0217113 
2048 1:0.667055 2:-0.230851 3:0.78715 4:0.130859 5:0.225685 6:-0.0399348 7:0.819391 8:-0.302841 9:0.667055 10:-0.230851 
2048 1:0.029951 2:-0.271328 3:0.0035652 4:0.0113642 5:-0.0764873 6:-0.233904 7:0.138594 8:-0.247126 9:0.0299511 10:-0.271328 
2048 1:-0.504489 2:-0.345841 3:-0.59865 4:-0.329464 5:-0.675165 6:-0.398533 7:-0.462255 8:-0.359293 9:-0.504489 10:-0.345842 
2048 1:0.59551 2:-0.522588 3:0.479709 4:-0.322733 5:-0.140699 6:-0.426243 7:0.671805 8:-0.659455 9:0.59551 10:-0.522589 
2048 1:0.433396 2:-0.217912 3:0.408101 4:-0.0591621 5:-0.199245 6:-0.411573 7:0.596782 8:-0.457129 9:0.433395 10:-0.217912 
2048 1:0.284218 2:-0.293257 3:0.150497 4:-0.161391 5:0.03305 6:-0.258354 7:0.290113 8:-0.385318 9:0.284218 10:-0.293257 
2048 1:0.431235 2:-0.157215 3:0.41599 4:0.00297517 5:-0.473088 6:-0.643032 7:0.483421 8:-0.231467 9:0.431235 10:-0.157215 
2048 1:0.131598 2:-0.393713 3:-0.166882 4:-0.42467 5:0.0481586 6:0.126324 7:0.0837149 8:-0.530253 9:0.131598 10:-0.393714 
2048 1:-0.153398 2:-0.337195 3:-0.246454 4:0.103351 5:-0.796034 6:-0.95436 7:-0.127456 8:-0.266311 9:-0.153398 10:-0.337194 
2048 1:-0.202814 2:-0.416635 3:-0.293332 4:-0.196215 5:-0.437205 6:-0.559902 7:-0.153455 8:-0.437738 9:-0.202814 10:-0.416636 
2048 1:-0.445904 2:-0.0055891 3:-0.549723 4:0.228113 5:-0.835694 6:-0.799511 7:-0.522839 8:0.172493 9:-0.445904 10:-0.0055893 
2048 1:0.250534 2:-0.0423259 3:0.32193 4:0.526606 5:-0.516525 6:-0.682152 7:0.49591 8:-0.0106184 9:0.250534 10:-0.0423256 
2048 1:-0.447164 2:-0.381531 3:-0.571797 4:-0.259425 5:-0.644948 6:-0.263244 7:-0.49678 8:-0.405507 9:-0.447163 10:-0.381532 
2048 1:-0.335832 2:0.0149671 3:-0.4945 4:0.0274594 5:-0.701605 6:-0.646292 7:-0.360843 8:-0.0438143 9:-0.335832 10:0.0149673 
2048 1:0.221974 2:0.411353 3:-0.0930744 4:0.463005 5:-0.495751 6:-0.460473 7:0.289062 8:0.236267 9:0.221974 10:0.411353 
2048 1:0.706578 2:-0.663425 3:0.731776 4:-0.558211 5:0.301228 6:-0.515892 7:0.771927 8:-0.830409 9:0.706578 10:-0.663425 
2048 1:-0.161752 2:-0.083007 3:-0.253888 4:0.196215 5:-0.16525 6:-0.392013 7:-0.13271 8:-0.104188 9:-0.161752 10:-0.0830073 
2048 1:0.309895 2:-0.607226 3:0.44254 4:-0.401356 5:-0.233239 6:-0.610432 7:0.45472 8:-0.736852 9:0.309895 10:-0.607226 
2048 1:0.294167 2:-0.611421 3:0.0973223 4:-0.579769 5:-0.0708215 6:-0.455583 7:0.292094 8:-0.732219 9:0.294166 10:-0.611421 
2048 1:-0.917843 2:-0.626635 3:-0.916483 4:-0.750963 5:-0.799811 6:-0.524042 7:-0.961632 8:-0.726579 9:-0.917842 10:-0.626635 
2048 1:-0.286497 2:-0.440752 3:-0.387545 4:-0.0521387 5:-0.680831 6:-0.657702 7:-0.179663 8:-0.448337 9:-0.286497 10:-0.440752 
2048 1:-0.495008 2:-0.403007 3:-0.573162 4:0.0267766 5:-0.826251 6:-0.812551 7:-0.449406 8:-0.210331 9:-0.495008 10:-0.403007 
2048 1:0.343553 2:-0.0766159 3:-0.00561329 4:0.033995 5:0.167139 6:-0.219234 7:0.155496 8:-0.162178 9:0.343553 10:-0.0766161 
2037.450139677262 1:0.280188 2:-0.316915 3:0.34499 4:-0.0229722 5:0.25779 6:-0.0497148 7:0.463607 8:-0.413872 9:0.280189 10:-0.316915 
2048 1:0.0325389 2:-0.323503 3:0.10248 4:0.0945715 5:-0.389991 6:-0.509372 7:0.348564 8:-0.342798 9:0.0325389 10:-0.323503 
1986.02072157783 1:0.459597 2:-0.0188526 3:0.432375 4:0.350437 5:0.0519358 6:-0.229014 7:0.736472 8:-0.158395 9:0.459597 10:-0.0188525 
-2048 1:0.178333 2:-0.157218 3:0.158993 4:0.460664 5:0.646837 6:1 7:0.389724 8:-0.157997 9:0.178333 10:-0.157217 
-2048 1:0.653422 2:0.351741 3:0.515664 4:0.348095 5:-0.0273843 6:-0.387123 7:0.72002 8:0.201238 9:0.653422 10:0.351741 
-2048 1:0.605256 2:-0.436401 3:0.600622 4:-0.171438 5:0.457979 6:-0.0676447 7:0.74833 8:-0.562096 9:0.605256 10:-0.436401 
-2048 1:-0.532786 2:-0.499933 3:-0.569445 4:-0.105692 5:-0.242682 6:-0.0872046 7:-0.358831 8:-0.455761 9:-0.532786 10:-0.499933 
-2048 1:0.17808 2:-0.103385 3:-0.00530987 4:0.0410184 5:-0.0651558 6:-0.548492 7:0.185007 8:-0.152555 9:0.17808 10:-0.103385 
-2048 1:0.214369 2:-0.344789 3:0.333232 4:0.150563 5:-0.169027 6:-0.354523 7:0.45382 8:-0.38654 9:0.214368 10:-0.34479 
-2048 1:0.5028 2:-0.327973 3:0.293105 4:-0.120909 5:-0.365439 6:-0.540342 7:0.504076 8:-0.478072 9:0.5028 10:-0.327973 
-2048 1:0.255142 2:-0.0668668 3:0.238565 4:0.266741 5:-0.484419 6:-0.762021 7:0.377685 8:-0.11243 9:0.255142 10:-0.0668671 
-2048 1:0.729655 2:-0.385152 3:0.605097 4:-0.137102 5:-0.248347 6:-0.675632 7:0.802069 8:-0.605139 9:0.729655 10:-0.385152 
-2048 1:-0.416786 2:-0.534762 3:-0.414397 4:-0.030776 5:-0.348442 6:-0.595762 7:-0.282457 8:-0.44481 9:-0.416786 10:-0.534763 
-2048 1:0.026364 2:-0.342871 3:-0.0935295 4:-0.0457006 5:-0.312559 6:-0.365933 7:-4.49154e-005 8:-0.360044 9:0.026364 10:-0.342871 
-2048 1:0.502209 2:-0.263486 3:0.32997 4:-0.0671609 5:0.0500472 6:-0.123064 7:0.478707 8:-0.353655 9:0.502209 10:-0.263486 
-2048 1:-0.0104531 2:-0.3846 3:-0.113707 4:-0.0260937 5:-0.291785 6:-0.494703 7:0.0525526 8:-0.395883 9:-0.0104531 10:-0.3846 
-2048 1:0.409445 2:-0.247133 3:0.250171 4:0.110179 5:0.0254958 6:-0.273024 7:0.366697 8:-0.196569 9:0.409445 10:-0.247133 
-2048 1:0.274843 2:-0.325776 3:0.145111 4:-0.225284 5:-0.220019 6:-0.253464 7:0.338537 8:-0.421395 9:0.274843 10:-0.325776 
-2048 1:-0.0848771 2:-0.517746 3:-0.17295 4:-0.319026 5:-0.288008 6:-0.432763 7:-0.0163767 8:-0.60015 9:-0.0848768 10:-0.517746 
-2048 1:-0.124468 2:-0.681131 3:-0.238641 4:-0.459981 5:-0.21813 6:-0.315403 7:-0.0673231 8:-0.715362 9:-0.124468 10:-0.681131 
-2048 1:0.131988 2:-0.347323 3:0.0806342 4:-0.055943 5:-0.131256 6:-0.317033 7:0.20323 8:-0.379905 9:0.131988 10:-0.347323 
-2048 1:-0.285366 2:-0.510174 3:-0.441933 4:-0.381651 5:-0.312559 6:-0.114914 7:-0.310587 8:-0.525303 9:-0.285365 10:-0.510175 
-2048 1:-0.148212 2:-0.459497 3:-0.281044 4:-0.216212 5:-0.0273843 6:-0.176854 7:-0.0979149 8:-0.429153 9:-0.148212 10:-0.459497 
-2048 1:0.382227 2:-0.338861 3:0.280513 4:0.0340926 5:0.372993 6:0.361043 7:0.449406 8:-0.41378 9:0.382227 10:-0.338861 
-2048 1:-0.37646 2:-0.0809812 3:-0.492983 4:0.31493 5:-0.603399 6:-0.621842 7:-0.360363 8:-0.00781946 9:-0.37646 10:-0.0809813 
-1497.523304721294 1:-0.420129 2:-0.377775 3:-0.593036 4:-0.210262 5:-0.777148 6:-0.659332 7:-0.408817 8:-0.355944 9:-0.420129 10:-0.377775 
-2048 1:0.249508 2:-0.270813 3:0.134719 4:0.0212164 5:-0.405099 6:-0.680522 7:0.310077 8:-0.212127 9:0.249508 10:-0.270813 
-2048 1:0.047363 2:-0.574707 3:-0.0894334 4:-0.222065 5:-0.114259 6:-0.545232 7:0.0959637 8:-0.721545 9:0.0473631 10:-0.574707 
-2048 1:-0.41234 2:-0.34129 3:-0.550633 4:-0.192996 5:-0.448536 6:-0.405053 7:-0.486723 8:-0.316328 9:-0.41234 10:-0.341291 
-719.0521317054562 1:0.00571438 2:-0.0633428 3:-0.359175 4:-0.207433 5:-0.90746 6:-0.711491 7:-0.27339 8:-0.0808693 9:0.00571464 10:-0.0633425 
-2048 1:-0.579576 2:-0.52499 3:-0.531897 4:-0.31493 5:-1 6:-0.9837 7:-0.603927 8:-0.451449 9:-0.579576 10:-0.524991 
-2048 1:-0.251629 2:-0.350868 3:-0.43101 4:-0.0442374 5:-0.544854 6:-0.568052 7:-0.20338 8:-0.334321 9:-0.251629 10:-0.350868 
-1616.044507177177 1:-0.713179 2:-1 3:-0.90556 4:-0.971809 5:-0.446648 6:-0.574572 7:-0.686306 8:-0.943986 9:-0.713178 10:-1 
-2048 1:0.400939 2:-0.114062 3:0.299628 4:0.0210213 5:-0.412653 6:-0.625102 7:0.480839 8:-0.197533 9:0.400939 10:-0.114063 
-1371.143849456379 1:-0.0192484 2:-0.323706 3:-0.088599 4:0.155343 5:-0.386213 6:-0.287694 7:0.117249 8:-0.28691 9:-0.0192483 10:-0.323706 
-2048 1:-0.0291052 2:-0.244503 3:-0.172722 4:0.0950593 5:-0.220019 6:-0.229014 7:-0.00950165 8:-0.290559 9:-0.0291051 10:-0.244503 
-2048 1:-0.265107 2:-0.556201 3:-0.336115 4:-0.354729 5:-0.272899 6:-0.466993 7:-0.257719 8:-0.595255 9:-0.265107 10:-0.556201 
-2048 1:0.485032 2:-0.369277 3:0.376925 4:-0.0605277 5:-0.068933 6:-0.626732 7:0.686036 8:-0.48284 9:0.485032 10:-0.369276 
-2048 1:-0.43226 2:-0.269441 3:-0.519684 4:-0.169682 5:-0.573182 6:-0.426243 7:-0.371951 8:-0.282169 9:-0.43226 10:-0.269441 
-2048 1:0.103606 2:0.00980674 3:-0.0678905 4:0.0900844 5:-0.352219 6:-0.533822 7:0.0711059 8:-0.115367 9:0.103606 10:0.00980659 
-2048 1:0.326149 2:0.647218 3:0.119396 4:0.748037 5:-0.527856 6:-0.846781 7:0.324757 8:0.63706 9:0.326149 10:0.647218 
-1381.883262036192 1:-0.744509 2:-0.741511 3:-0.825154 4:-0.549042 5:-0.533522 6:-0.317033 7:-0.775529 8:-0.734886 9:-0.744509 10:-0.741511 
-2048 1:-0.313368 2:-0.399687 3:-0.364636 4:-0.111154 5:-0.197356 6:-0.493073 7:-0.23115 8:-0.409937 9:-0.313368 10:-0.399687 
-2048 1:-0.268387 2:-0.448506 3:-0.411439 4:-0.192899 5:-0.548631 6:-0.687042 7:-0.218511 8:-0.427249 9:-0.268387 10:-0.448506 
-2048 1:-0.857621 2:-0.817864 3:-0.911704 4:-0.565722 5:-0.480642 6:-0.457213 7:-0.88844 8:-0.700914 9:-0.857621 10:-0.817865 
-2048 1:-0.394056 2:-0.465056 3:-0.526587 4:-0.290835 5:-0.673277 6:-0.669112 7:-0.424248 8:-0.427638 9:-0.394056 10:-0.465056 
-2048 1:-0.779736 2:-0.379458 3:-0.84571 4:-0.188021 5:-0.529745 6:0.403423 7:-0.791501 8:-0.261486 9:-0.779735 10:-0.379459 
-489.0928086485142 1:-0.661599 2:-0.592066 3:-0.719411 4:-0.360679 5:-0.8678 6:-0.95599 7:-0.696633 8:-0.423752 9:-0.661598 10:-0.592066 
-2048 1:-0.147493 2:-0.456921 3:-0.307897 4:-0.231625 5:-0.0632672 6:-0.277914 7:-0.106651 8:-0.412881 9:-0.147493 10:-0.456921 
-2048 1:0.33841 2:-0.0831135 3:0.218311 4:0.0936936 5:-0.295562 6:-0.532192 7:0.390054 8:-0.18161 9:0.33841 10:-0.0831136 
-2048 1:0.716935 2:-0.21967 3:0.557536 4:0.126762 5:0.365439 6:-0.144254 7:0.70657 8:-0.319135 9:0.716935 10:-0.21967 
-2048 1:0.255563 2:-0.384475 3:0.0692559 4:-0.242647 5:-0.331445 6:-0.726161 7:0.326528 8:-0.517925 9:0.255563 10:-0.384476 
-2048 1:0.191476 2:-0.453889 3:0.218084 4:-0.310735 5:-0.448536 6:-0.677262 7:0.387382 8:-0.525492 9:0.191476 10:-0.453889 
