svm_type c_svc
kernel_type rbf
gamma 0.5
nr_class 2
total_sv 114
rho -1.27692
label 1 2
probA -0.863939
probB -0.19399
nr_sv 56 58
SV
4.822907267415276 1:0.143805 2:0.183821 3:0.856515 4:0.0964394 
8 1:-0.458251 2:-0.974049 3:0.903411 4:-0.130114 
8 1:-0.593817 2:-0.72467 3:0.989923 4:-0.789274 
8 1:-0.800872 2:-0.723908 3:0.985638 4:-0.747806 
8 1:-0.702602 2:-0.731145 3:1 4:-1 
8 1:-0.127733 2:-0.756002 3:0.977769 4:-0.712946 
8 1:-0.397496 2:-0.490764 3:0.972983 4:-0.836587 
6.584670477364385 1:-0.530021 2:-0.860273 3:-0.832512 4:-1 
8 1:-0.739826 2:-0.487606 3:0.994596 4:-0.923398 
8 1:-0.280423 2:-0.637294 3:0.97713 4:-0.838058 
8 1:-0.817743 2:-0.759649 3:1 4:-1 
8 1:-0.82089 2:-0.0888468 3:0.646641 4:-0.766249 
8 1:-0.706285 2:-0.449876 3:0.52785 4:0.0047074 
5.808472596831991 1:-0.619591 2:-0.662526 3:0.586945 4:0.512469 
8 1:-0.880553 2:-0.462268 3:0.998055 4:-0.923747 
8 1:-0.329584 2:-0.53821 3:0.989193 4:-0.892892 
8 1:-0.13794 2:-0.809114 3:0.99964 4:-0.980015 
8 1:-0.384316 2:-0.180252 3:0.753968 4:-1 
8 1:-0.225085 2:-0.316645 3:0.753968 4:-1 
8 1:-0.542728 2:-0.645312 3:0.507632 4:0.2036 
2.704641435177974 1:0.322676 2:-0.598286 3:1 4:-1 
8 1:-0.610071 2:-0.639845 3:0.322854 4:-0.73153 
8 1:-0.649166 2:-0.464444 3:0.994957 4:-0.925941 
8 1:-0.619773 2:-0.113701 3:1 4:-1 
8 1:-0.487615 2:-0.530292 3:1 4:-1 
8 1:-0.349645 2:-0.637667 3:0.475352 4:-0.417234 
8 1:-0.421919 2:-0.673701 3:0.880766 4:-0.738791 
8 1:-0.821225 2:-0.386272 3:1 4:-1 
8 1:-0.290709 2:-0.926824 3:0.987544 4:-0.815064 
8 1:-0.754729 2:0.669322 3:0.672349 4:-0.577699 
8 1:-0.853834 2:-0.0040623 3:0.875098 4:-0.576348 
8 1:-0.52562 2:0.261844 3:0.822922 4:-0.539114 
8 1:-0.185358 2:-0.491312 3:0.807054 4:-0.765394 
8 1:-0.91337 2:-0.449189 3:0.933755 4:-0.399293 
6.600721571524939 1:-0.565462 2:0.195374 3:0.55395 4:-0.799662 
8 1:-0.942132 2:-0.762342 3:0.97504 4:-0.769222 
8 1:-0.784773 2:-0.870017 3:0.335714 4:-1 
8 1:-0.899315 2:-0.738099 3:1 4:-1 
8 1:-0.920554 2:0.0452773 3:0.720697 4:-0.009366 
8 1:-0.483791 2:0.00763101 3:0.954343 4:-0.363803 
8 1:-0.84637 2:-0.214985 3:1 4:-1 
8 1:-0.723108 2:-0.747782 3:0.729695 4:-0.518415 
8 1:0.0696802 2:0.261483 3:1 4:-1 
8 1:-0.255468 2:-0.800395 3:1 4:-1 
8 1:-0.429896 2:-0.687294 3:1 4:-1 
8 1:-0.792338 2:-0.603462 3:0.982444 4:-0.838015 
8 1:-0.859606 2:-0.965041 3:0.679893 4:-0.555695 
8 1:-0.809293 2:-0.508287 3:0.341226 4:-0.66556 
8 1:-0.964977 2:-0.580865 3:0.905517 4:-0.573661 
8 1:-0.512399 2:-0.715336 3:0.993092 4:-0.81742 
8 1:-0.247214 2:-0.295945 3:0.763039 4:-0.667059 
8 1:0.279996 2:-0.429951 3:0.996587 4:-0.915579 
8 1:-0.469458 2:-0.493257 3:0.994236 4:-0.920946 
8 1:-0.428552 2:-0.991023 3:1 4:-1 
8 1:-0.819959 2:-0.560157 3:0.267167 4:-0.0474548 
8 1:-0.343495 2:-0.88967 3:0.60463 4:0.0453239 
-8 1:-0.364527 2:-0.840565 3:-0.832512 4:-1 
-8 1:-0.665662 2:-0.766281 3:0.7323 4:-0.306808 
-8 1:-0.0744135 2:0.417772 3:1 4:-1 
-8 1:-0.80595 2:-0.708973 3:0.641791 4:0.258292 
-8 1:-0.919129 2:-0.794073 3:0.998308 4:-0.906159 
-8 1:-0.564935 2:-0.935392 3:1 4:-1 
-8 1:-0.433191 2:-0.872407 3:0.158222 4:-0.928499 
-8 1:-0.752274 2:-0.836346 3:1 4:-1 
-0.1192809889334397 1:-0.494672 2:-0.632897 3:1 4:-1 
-8 1:-0.824214 2:-0.951094 3:0.770182 4:-0.367804 
-8 1:-0.647999 2:-0.431009 3:0.561136 4:-0.767465 
-8 1:-0.392095 2:-0.777357 3:0.990154 4:-0.854586 
-4.516548359728714 1:-0.877132 2:-0.508655 3:0.984193 4:-0.772652 
-8 1:-0.620444 2:-0.325549 3:0.728679 4:-0.483945 
-8 1:-0.473266 2:-0.731564 3:1 4:-1 
-8 1:-0.481478 2:-0.0740465 3:0.994596 4:-0.923398 
-8 1:-0.858732 2:-0.643546 3:0.603411 4:-0.330423 
-8 1:-1 2:0.652039 3:0.978198 4:-0.657728 
-2.83258385502233 1:-0.654126 2:-0.506872 3:0.801749 4:-0.159198 
-8 1:-0.440617 2:-0.447518 3:0.72716 4:-0.603104 
-8 1:-0.76403 2:-0.431174 3:1 4:-1 
-8 1:-0.507346 2:-0.728207 3:0.717918 4:0.117562 
-8 1:-0.613965 2:-0.382724 3:0.738655 4:-0.524098 
-8 1:-0.248345 2:0.0306701 3:0.968921 4:-0.611261 
-8 1:-0.120586 2:-0.607512 3:0.99253 4:-0.854684 
-8 1:-0.461629 2:-0.867328 3:0.979827 4:-0.856606 
-8 1:-0.665572 2:-0.211935 3:0.670264 4:-0.551014 
-8 1:-0.916047 2:-0.305285 3:0.99964 4:-0.980015 
-2.12056930577095 1:-0.859831 2:0.571468 3:0.993362 4:-0.897519 
-8 1:-0.518223 2:0.150724 3:1 4:-1 
-8 1:-0.343413 2:-0.79285 3:1 4:-1 
-8 1:-0.176345 2:-0.42552 3:0.989269 4:-0.887078 
-8 1:-0.136239 2:-0.739031 3:0.931196 4:-0.592808 
-7.487315773582688 1:-0.597035 2:-0.239169 3:1 4:-1 
-8 1:-0.914378 2:-0.727988 3:0.99964 4:-0.980015 
-8 1:-0.204034 2:-0.691207 3:0.995427 4:-0.885962 
-8 1:-0.714198 2:-0.531879 3:1 4:-1 
-8 1:-0.863847 2:-0.657167 3:0.335258 4:-0.904041 
-8 1:-0.285763 2:-0.472804 3:0.705191 4:-0.148085 
-8 1:-0.733982 2:-0.73516 3:1 4:-1 
-8 1:-0.559502 2:0.194327 3:0.582068 4:0.0289921 
-8 1:-0.681787 2:-0.844421 3:0.934866 4:-0.38246 
-8 1:-0.565582 2:-0.851529 3:1 4:-1 
-8 1:-0.730124 2:-0.455586 3:0.209364 4:-0.12312 
-8 1:-0.141711 2:-0.608047 3:0.951632 4:-0.611313 
-8 1:-0.731737 2:-0.693472 3:1 4:-1 
-8 1:-0.297862 2:-0.746374 3:0.966803 4:-0.806839 
-8 1:-0.660286 2:-0.270037 3:0.485495 4:-0.410268 
-8 1:-0.844341 2:-0.627905 3:0.999027 4:-0.946041 
-8 1:-0.0934892 2:-0.59815 3:1 4:-1 
-8 1:-0.903469 2:0.00841319 3:0.999279 4:-0.971758 
-8 1:-0.243762 2:-0.276896 3:1 4:-1 
-8 1:-0.838824 2:-0.38609 3:0.778139 4:-0.234705 
-1.445115065276448 1:-0.759679 2:0.356909 3:0.932971 4:-0.585911 
-8 1:-0.161279 2:-0.581487 3:0.992576 4:-0.851697 
-8 1:-0.786527 2:0.0154348 3:0.739321 4:-0.0696227 
-8 1:-0.11476 2:-0.494427 3:0.98932 4:-0.858721 
-8 1:-0.817771 2:-0.720316 3:0.761173 4:-0.91188 
