svm_type c_svc
kernel_type rbf
gamma 0.0078125
nr_class 2
total_sv 103
rho -0.737006
label 1 2
nr_sv 52 51
SV
32 1:-0.0564362 2:1 3:-0.229486 4:-0.848057 
32 1:-0.147355 2:-0.834141 3:-1 4:-0.826977 
32 1:-0.0696192 2:0.264734 3:0.410423 4:-0.706299 
32 1:-0.101923 2:-0.0468669 3:0.0594489 4:-0.757523 
32 1:-0.0625919 2:-0.114075 3:0.134542 4:-0.831356 
32 1:-0.132919 2:-0.553685 3:-0.0982068 4:-0.76567 
32 1:-0.048265 2:-0.296327 3:-0.749285 4:-0.643261 
32 1:-0.053767 2:-0.306609 3:0.0719645 4:-0.79836 
32 1:-0.115542 2:0.114969 3:-0.476903 4:-0.368094 
32 1:-0.0822574 2:0.0607257 3:-0.214077 4:-0.443658 
32 1:-0.145503 2:0.807317 3:0.180836 4:-0.840929 
32 1:-0.0332843 2:0.248938 3:0.142348 4:-0.64153 
32 1:-0.0465218 2:0.667089 3:-0.0155772 4:-0.641122 
32 1:-0.0441793 2:-0.319574 3:-0.0719645 4:-0.71027 
32 1:-0.0537125 2:-0.358766 3:-0.1336 4:-0.639289 
32 1:-0.0924988 2:-0.0449296 3:-0.325707 4:-0.729212 
3.686591623168495 1:-0.176717 2:-0.413755 3:-0.130841 4:-0.734508 
32 1:-0.105246 2:-0.130318 3:-0.182115 4:-0.490605 
32 1:-0.041728 2:-0.42508 3:-0.433705 4:-0.841947 
32 1:-0.113581 2:-0.0668356 3:0.266965 4:-0.528184 
32 1:-0.070055 2:-0.415245 3:-0.404905 4:-0.737869 
32 1:-0.104048 2:-0.407794 3:-0.192275 4:-0.707419 
32 1:-0.0991447 2:-0.0568512 3:-0.548632 4:-0.890829 
32 1:-0.133736 2:-0.535057 3:-0.0848165 4:-0.893274 
32 1:-0.128289 2:-0.343715 3:-0.170541 4:-0.759866 
32 1:-0.0488097 2:-0.0443335 3:-0.293947 4:-0.613219 
32 1:-0.139129 2:-0.462037 3:-0.4043 4:-0.820459 
32 1:-0.022934 2:-0.0237687 3:-0.223968 4:-0.8338 
32 1:-0.0747944 2:-0.212428 3:-0.102109 4:-0.749987 
32 1:-0.158141 2:-0.15893 3:-0.304377 4:-0.764346 
32 1:-0.111837 2:-0.70032 3:-0.280826 4:-0.629105 
13.18212134931477 1:-0.177861 2:-0.358766 3:-0.73502 4:-0.777993 
32 1:-0.0358991 2:-0.530586 3:-0.579652 4:-0.640817 
32 1:-0.0979463 2:-0.111691 3:0.0120109 4:-0.671979 
32 1:-0.119464 2:-0.475449 3:-0.475087 4:-0.642039 
32 1:-0.112927 2:-0.318829 3:-0.440568 4:-0.807424 
32 1:-0.169581 2:-0.482453 3:-0.269926 4:-0.80386 
32 1:-0.152095 2:-0.17115 3:-0.310635 4:-0.730129 
32 1:-0.0485918 2:-0.36115 3:-0.24079 4:-0.856204 
32 1:-0.14948 2:-0.629238 3:-0.24624 4:-0.863944 
32 1:-0.135207 2:-0.207362 3:0.416748 4:-0.783492 
32 1:-0.0288718 2:-0.266672 3:-0.131178 4:-0.615663 
32 1:-0.127199 2:-0.405111 3:0.23608 4:-0.812109 
32 1:-0.133845 2:-0.000968631 3:-0.0759345 4:-0.354855 
32 1:-0.0156344 2:-0.126593 3:-0.0112034 4:-0.797648 
32 1:-0.124639 2:-0.403025 3:-0.166639 4:-0.85763 
32 1:-0.0503895 2:0.18486 3:-0.238973 4:-0.88421 
32 1:-0.139783 2:-0.508531 3:-0.120008 4:-0.633179 
32 1:-0.145394 2:-0.346546 3:0.214346 4:-0.710067 
32 1:-0.0524596 2:-0.396319 3:-0.266158 4:-0.849076 
32 1:-0.0320859 2:-0.147008 3:-0.112068 4:-0.654056 
32 1:-0.0901563 2:-0.43119 3:-0.197322 4:-0.738378 
-32 1:0.0927711 2:-0.195291 3:-0.0340141 4:-0.806507 
-32 1:0.0937517 2:-0.127636 3:0.378327 4:-0.892866 
-32 1:0.149534 2:-0.331942 3:-0.390708 4:-0.934416 
-32 1:0.182927 2:0.0167648 3:0.0140295 4:-0.625134 
-22.14516915750255 1:0.195293 2:-0.0160197 3:0.107223 4:-0.666073 
-32 1:0.0960941 2:-0.244915 3:-0.653803 4:-0.567595 
-32 1:0.156235 2:-0.477237 3:-0.216163 4:-0.831661 
-32 1:0.168546 2:-0.186052 3:-0.305521 4:-0.459341 
-32 1:0.0995805 2:0.209299 3:0.155873 4:-0.773817 
-32 1:0.084382 2:0.430445 3:0.130101 4:-0.808341 
-32 1:0.11053 2:-0.521645 3:-0.352623 4:-0.656398 
-32 1:0.132647 2:-0.265778 3:0.0451166 4:-0.731555 
-32 1:0.18783 2:-0.250279 3:-0.336541 4:-0.707215 
-32 1:0.0818761 2:-0.252366 3:-0.286411 4:-0.791741 
-32 1:0.094242 2:-0.299605 3:-0.157555 4:-0.713937 
-32 1:0.110639 2:-0.319425 3:-0.323554 4:-0.753653 
-32 1:0.112273 2:-0.160569 3:0.158093 4:-0.580223 
-32 1:0.17748 2:0.0547649 3:-0.245702 4:-0.611997 
-32 1:0.108297 2:-0.183518 3:-0.363927 4:-0.762819 
-32 1:0.0678215 2:-0.323448 3:-0.297245 4:-0.685015 
-32 1:0.0792068 2:-0.326131 3:-0.457121 4:-0.543459 
-32 1:0.0793158 2:-0.285448 3:-0.204387 4:-0.528387 
-32 1:0.0764831 2:-0.574249 3:-0.429264 4:-0.740211 
-26.72354381498072 1:0.194204 2:-0.00543924 3:0.371463 4:-0.962727 
-32 1:0.176009 2:0.126742 3:-0.466406 4:-0.785936 
-32 1:0.187503 2:-0.395872 3:-0.297043 4:-0.739091 
-32 1:0.0621017 2:0.158483 3:-0.526293 4:-0.393961 
-32 1:0.138476 2:-0.0143804 3:-0.121354 4:-0.805693 
-32 1:0.0825843 2:-0.431488 3:-0.00958853 4:-0.780844 
-32 1:0.0572534 2:-0.469041 3:-0.162669 4:-0.617088 
-32 1:0.0599226 2:-0.0711571 3:-0.395754 4:-0.920363 
-32 1:0.084382 2:-0.152671 3:-0.24873 4:-0.932074 
-32 1:0.13281 2:-0.269801 3:-0.0767419 4:-0.733795 
-32 1:0.128126 2:-0.398704 3:-0.375568 4:-0.720149 
-32 1:0.183581 2:-0.539081 3:-0.245904 4:-0.457203 
-32 1:0.104156 2:-0.231801 3:-0.138243 4:-0.638373 
-32 1:0.100833 2:0.335072 3:0.706221 4:-0.886552 
-32 1:0.131122 2:-0.469935 3:0.0861622 4:-0.787566 
-32 1:0.148881 2:0.325088 3:-0.384517 4:-0.871786 
-32 1:0.159503 2:-0.187989 3:0.356391 4:-0.482764 
-32 1:0.115705 2:-0.441323 3:-0.47327 4:-0.904781 
-32 1:0.0701095 2:-0.638477 3:-0.436329 4:-0.698966 
-32 1:0.179223 2:-0.107518 3:-0.467214 4:-0.786547 
-32 1:0.064662 2:-0.494524 3:-0.528379 4:-0.672896 
-32 1:0.152312 2:-0.159526 3:-0.389631 4:-0.729925 
-32 1:0.131231 2:-0.062365 3:-0.337348 4:-0.635216 
-32 1:0.185433 2:0.13315 3:0.0786933 4:-0.645807 
-32 1:0.152095 2:-0.317637 3:-0.233657 4:-0.689495 
-32 1:0.183418 2:-0.311825 3:-0.0991488 4:-0.911401 
-32 1:0.142071 2:-0.451904 3:-0.0159809 4:-0.840216 
-32 1:0.131285 2:-0.0236197 3:-0.0206238 4:-0.811498 
